digraph Tree {
node [shape=box, style="filled, rounded", color="black", fontname=helvetica] ;
edge [fontname=helvetica] ;
0 [label="window_crossing_point <= -1.02\ngini = 0.1\nsamples = 264940\nvalue = [397077, 22731]\nclass = t", fillcolor="#e68844"] ;
1 [label="hour_0.30434782608695654 <= 0.5\ngini = 0.42\nsamples = 11859\nvalue = [13195, 5559]\nclass = t", fillcolor="#f0b68c"] ;
0 -> 1 [labeldistance=2.5, labelangle=45, headlabel="True"] ;
2 [label="hour_0.4782608695652174 <= 0.5\ngini = 0.42\nsamples = 11317\nvalue = [12420, 5478]\nclass = t", fillcolor="#f0b990"] ;
1 -> 2 ;
3 [label="ab_diff <= -0.64\ngini = 0.42\nsamples = 10441\nvalue = [11610, 4940]\nclass = t", fillcolor="#f0b78d"] ;
2 -> 3 ;
4 [label="date_0.6333333333333333 <= 0.5\ngini = 0.47\nsamples = 1577\nvalue = [1577, 954]\nclass = t", fillcolor="#f5cdb1"] ;
3 -> 4 ;
5 [label="window_mean <= 0.72\ngini = 0.47\nsamples = 1540\nvalue = [1562, 916]\nclass = t", fillcolor="#f4cbad"] ;
4 -> 5 ;
6 [label="window_mean <= -0.13\ngini = 0.16\nsamples = 877\nvalue = [1282, 126]\nclass = t", fillcolor="#e88d4c"] ;
5 -> 6 ;
7 [label="gini = 0.0\nsamples = 531\nvalue = [859, 0]\nclass = t", fillcolor="#e58139"] ;
6 -> 7 ;
8 [label="hour_0.7391304347826086 <= 0.5\ngini = 0.35\nsamples = 346\nvalue = [423, 126]\nclass = t", fillcolor="#eda774"] ;
6 -> 8 ;
9 [label="window_dev <= 0.73\ngini = 0.38\nsamples = 310\nvalue = [369, 126]\nclass = t", fillcolor="#eeac7d"] ;
8 -> 9 ;
10 [label="gini = 0.0\nsamples = 119\nvalue = [185, 0]\nclass = t", fillcolor="#e58139"] ;
9 -> 10 ;
11 [label="window_dev <= 0.75\ngini = 0.48\nsamples = 191\nvalue = [184, 126]\nclass = t", fillcolor="#f7d7c1"] ;
9 -> 11 ;
12 [label="gini = 0.0\nsamples = 7\nvalue = [0, 15]\nclass = a", fillcolor="#399de5"] ;
11 -> 12 ;
13 [label="window_peak <= 1.09\ngini = 0.47\nsamples = 184\nvalue = [184, 111]\nclass = t", fillcolor="#f5cdb0"] ;
11 -> 13 ;
14 [label="weekday_0.0 <= 0.5\ngini = 0.49\nsamples = 126\nvalue = [84, 108]\nclass = a", fillcolor="#d3e9f9"] ;
13 -> 14 ;
15 [label="window_mean <= 0.22\ngini = 0.5\nsamples = 112\nvalue = [83, 93]\nclass = a", fillcolor="#eaf4fc"] ;
14 -> 15 ;
16 [label="date_0.9 <= 0.5\ngini = 0.37\nsamples = 34\nvalue = [12, 37]\nclass = a", fillcolor="#79bded"] ;
15 -> 16 ;
17 [label="window_mean <= 0.21\ngini = 0.43\nsamples = 27\nvalue = [12, 27]\nclass = a", fillcolor="#91c9f1"] ;
16 -> 17 ;
18 [label="hour_0.6086956521739131 <= 0.5\ngini = 0.47\nsamples = 21\nvalue = [12, 19]\nclass = a", fillcolor="#b6dbf5"] ;
17 -> 18 ;
19 [label="total_load <= 0.75\ngini = 0.48\nsamples = 12\nvalue = [12, 8]\nclass = t", fillcolor="#f6d5bd"] ;
18 -> 19 ;
20 [label="gini = 0.0\nsamples = 6\nvalue = [12, 0]\nclass = t", fillcolor="#e58139"] ;
19 -> 20 ;
21 [label="gini = 0.0\nsamples = 6\nvalue = [0, 8]\nclass = a", fillcolor="#399de5"] ;
19 -> 21 ;
22 [label="gini = 0.0\nsamples = 9\nvalue = [0, 11]\nclass = a", fillcolor="#399de5"] ;
18 -> 22 ;
23 [label="gini = 0.0\nsamples = 6\nvalue = [0, 8]\nclass = a", fillcolor="#399de5"] ;
17 -> 23 ;
24 [label="gini = 0.0\nsamples = 7\nvalue = [0, 10]\nclass = a", fillcolor="#399de5"] ;
16 -> 24 ;
25 [label="re_diff <= -0.03\ngini = 0.49\nsamples = 78\nvalue = [71, 56]\nclass = t", fillcolor="#fae4d5"] ;
15 -> 25 ;
26 [label="minute_0.4067796610169492 <= 0.5\ngini = 0.29\nsamples = 20\nvalue = [23, 5]\nclass = t", fillcolor="#eb9c64"] ;
25 -> 26 ;
27 [label="window_mean <= 0.34\ngini = 0.25\nsamples = 19\nvalue = [23, 4]\nclass = t", fillcolor="#ea975b"] ;
26 -> 27 ;
28 [label="weekday_1.0 <= 0.5\ngini = 0.48\nsamples = 3\nvalue = [3, 2]\nclass = t", fillcolor="#f6d5bd"] ;
27 -> 28 ;
29 [label="gini = 0.0\nsamples = 1\nvalue = [0, 2]\nclass = a", fillcolor="#399de5"] ;
28 -> 29 ;
30 [label="gini = 0.0\nsamples = 2\nvalue = [3, 0]\nclass = t", fillcolor="#e58139"] ;
28 -> 30 ;
31 [label="date_0.4 <= 0.5\ngini = 0.17\nsamples = 16\nvalue = [20, 2]\nclass = t", fillcolor="#e88e4d"] ;
27 -> 31 ;
32 [label="minute_0.15254237288135594 <= 0.5\ngini = 0.24\nsamples = 10\nvalue = [12, 2]\nclass = t", fillcolor="#e9965a"] ;
31 -> 32 ;
33 [label="date_0.5666666666666667 <= 0.5\ngini = 0.32\nsamples = 9\nvalue = [8, 2]\nclass = t", fillcolor="#eca06a"] ;
32 -> 33 ;
34 [label="re_diff <= -0.05\ngini = 0.44\nsamples = 3\nvalue = [2, 1]\nclass = t", fillcolor="#f2c09c"] ;
33 -> 34 ;
35 [label="gini = 0.0\nsamples = 1\nvalue = [0, 1]\nclass = a", fillcolor="#399de5"] ;
34 -> 35 ;
36 [label="gini = 0.0\nsamples = 2\nvalue = [2, 0]\nclass = t", fillcolor="#e58139"] ;
34 -> 36 ;
37 [label="minute_0.6271186440677966 <= 0.5\ngini = 0.24\nsamples = 6\nvalue = [6, 1]\nclass = t", fillcolor="#e9965a"] ;
33 -> 37 ;
38 [label="minute_0.711864406779661 <= 0.5\ngini = 0.32\nsamples = 5\nvalue = [4, 1]\nclass = t", fillcolor="#eca06a"] ;
37 -> 38 ;
39 [label="re_diff <= -0.05\ngini = 0.38\nsamples = 4\nvalue = [3, 1]\nclass = t", fillcolor="#eeab7b"] ;
38 -> 39 ;
40 [label="gini = 0.0\nsamples = 1\nvalue = [0, 1]\nclass = a", fillcolor="#399de5"] ;
39 -> 40 ;
41 [label="gini = 0.0\nsamples = 3\nvalue = [3, 0]\nclass = t", fillcolor="#e58139"] ;
39 -> 41 ;
42 [label="gini = 0.0\nsamples = 1\nvalue = [1, 0]\nclass = t", fillcolor="#e58139"] ;
38 -> 42 ;
43 [label="gini = 0.0\nsamples = 1\nvalue = [2, 0]\nclass = t", fillcolor="#e58139"] ;
37 -> 43 ;
44 [label="gini = 0.0\nsamples = 1\nvalue = [4, 0]\nclass = t", fillcolor="#e58139"] ;
32 -> 44 ;
45 [label="gini = 0.0\nsamples = 6\nvalue = [8, 0]\nclass = t", fillcolor="#e58139"] ;
31 -> 45 ;
46 [label="gini = 0.0\nsamples = 1\nvalue = [0, 1]\nclass = a", fillcolor="#399de5"] ;
26 -> 46 ;
47 [label="re_diff <= 0.0\ngini = 0.5\nsamples = 58\nvalue = [48, 51]\nclass = a", fillcolor="#f3f9fd"] ;
25 -> 47 ;
48 [label="hour_0.5652173913043478 <= 0.5\ngini = 0.44\nsamples = 29\nvalue = [15, 30]\nclass = a", fillcolor="#9ccef2"] ;
47 -> 48 ;
49 [label="window_mean <= 0.69\ngini = 0.41\nsamples = 28\nvalue = [12, 30]\nclass = a", fillcolor="#88c4ef"] ;
48 -> 49 ;
50 [label="hour_0.6521739130434783 <= 0.5\ngini = 0.28\nsamples = 25\nvalue = [6, 30]\nclass = a", fillcolor="#61b1ea"] ;
49 -> 50 ;
51 [label="minute_0.5932203389830508 <= 0.5\ngini = 0.17\nsamples = 23\nvalue = [3, 30]\nclass = a", fillcolor="#4da7e8"] ;
50 -> 51 ;
52 [label="minute_0.423728813559322 <= 0.5\ngini = 0.07\nsamples = 21\nvalue = [1, 28]\nclass = a", fillcolor="#40a0e6"] ;
51 -> 52 ;
53 [label="hour_0.3913043478260869 <= 0.5\ngini = 0.07\nsamples = 20\nvalue = [1, 27]\nclass = a", fillcolor="#40a1e6"] ;
52 -> 53 ;
54 [label="gini = 0.0\nsamples = 12\nvalue = [0, 18]\nclass = a", fillcolor="#399de5"] ;
53 -> 54 ;
55 [label="window_mean <= 0.49\ngini = 0.18\nsamples = 8\nvalue = [1, 9]\nclass = a", fillcolor="#4fa8e8"] ;
53 -> 55 ;
56 [label="gini = 0.0\nsamples = 7\nvalue = [0, 9]\nclass = a", fillcolor="#399de5"] ;
55 -> 56 ;
57 [label="gini = 0.0\nsamples = 1\nvalue = [1, 0]\nclass = t", fillcolor="#e58139"] ;
55 -> 57 ;
58 [label="gini = 0.0\nsamples = 1\nvalue = [0, 1]\nclass = a", fillcolor="#399de5"] ;
52 -> 58 ;
59 [label="window_peak <= 0.35\ngini = 0.5\nsamples = 2\nvalue = [2, 2]\nclass = t", fillcolor="#ffffff"] ;
51 -> 59 ;
60 [label="gini = 0.0\nsamples = 1\nvalue = [2, 0]\nclass = t", fillcolor="#e58139"] ;
59 -> 60 ;
61 [label="gini = 0.0\nsamples = 1\nvalue = [0, 2]\nclass = a", fillcolor="#399de5"] ;
59 -> 61 ;
62 [label="gini = 0.0\nsamples = 2\nvalue = [3, 0]\nclass = t", fillcolor="#e58139"] ;
50 -> 62 ;
63 [label="gini = 0.0\nsamples = 3\nvalue = [6, 0]\nclass = t", fillcolor="#e58139"] ;
49 -> 63 ;
64 [label="gini = 0.0\nsamples = 1\nvalue = [3, 0]\nclass = t", fillcolor="#e58139"] ;
48 -> 64 ;
65 [label="window_dev <= 1.05\ngini = 0.48\nsamples = 29\nvalue = [33, 21]\nclass = t", fillcolor="#f6d1b7"] ;
47 -> 65 ;
66 [label="minute_0.847457627118644 <= 0.5\ngini = 0.22\nsamples = 20\nvalue = [27, 4]\nclass = t", fillcolor="#e99456"] ;
65 -> 66 ;
67 [label="window_mean <= 0.24\ngini = 0.23\nsamples = 19\nvalue = [26, 4]\nclass = t", fillcolor="#e99457"] ;
66 -> 67 ;
68 [label="weekday_0.6666666666666666 <= 0.5\ngini = 0.44\nsamples = 5\nvalue = [8, 4]\nclass = t", fillcolor="#f2c09c"] ;
67 -> 68 ;
69 [label="gini = 0.0\nsamples = 2\nvalue = [0, 4]\nclass = a", fillcolor="#399de5"] ;
68 -> 69 ;
70 [label="gini = 0.0\nsamples = 3\nvalue = [8, 0]\nclass = t", fillcolor="#e58139"] ;
68 -> 70 ;
71 [label="gini = 0.0\nsamples = 14\nvalue = [18, 0]\nclass = t", fillcolor="#e58139"] ;
67 -> 71 ;
72 [label="gini = 0.0\nsamples = 1\nvalue = [1, 0]\nclass = t", fillcolor="#e58139"] ;
66 -> 72 ;
73 [label="minute_0.7288135593220338 <= 0.5\ngini = 0.39\nsamples = 9\nvalue = [6, 17]\nclass = a", fillcolor="#7fc0ee"] ;
65 -> 73 ;
74 [label="window_peak <= 0.52\ngini = 0.31\nsamples = 8\nvalue = [4, 17]\nclass = a", fillcolor="#68b4eb"] ;
73 -> 74 ;
75 [label="minute_1.0 <= 0.5\ngini = 0.12\nsamples = 6\nvalue = [1, 14]\nclass = a", fillcolor="#47a4e7"] ;
74 -> 75 ;
76 [label="minute_0.0 <= 0.5\ngini = 0.14\nsamples = 5\nvalue = [1, 12]\nclass = a", fillcolor="#49a5e7"] ;
75 -> 76 ;
77 [label="hour_0.43478260869565216 <= 0.5\ngini = 0.2\nsamples = 4\nvalue = [1, 8]\nclass = a", fillcolor="#52a9e8"] ;
76 -> 77 ;
78 [label="window_mean <= 0.48\ngini = 0.38\nsamples = 2\nvalue = [1, 3]\nclass = a", fillcolor="#7bbeee"] ;
77 -> 78 ;
79 [label="gini = 0.0\nsamples = 1\nvalue = [1, 0]\nclass = t", fillcolor="#e58139"] ;
78 -> 79 ;
80 [label="gini = 0.0\nsamples = 1\nvalue = [0, 3]\nclass = a", fillcolor="#399de5"] ;
78 -> 80 ;
81 [label="gini = 0.0\nsamples = 2\nvalue = [0, 5]\nclass = a", fillcolor="#399de5"] ;
77 -> 81 ;
82 [label="gini = 0.0\nsamples = 1\nvalue = [0, 4]\nclass = a", fillcolor="#399de5"] ;
76 -> 82 ;
83 [label="gini = 0.0\nsamples = 1\nvalue = [0, 2]\nclass = a", fillcolor="#399de5"] ;
75 -> 83 ;
84 [label="window_dev <= 1.22\ngini = 0.5\nsamples = 2\nvalue = [3, 3]\nclass = t", fillcolor="#ffffff"] ;
74 -> 84 ;
85 [label="gini = 0.0\nsamples = 1\nvalue = [0, 3]\nclass = a", fillcolor="#399de5"] ;
84 -> 85 ;
86 [label="gini = 0.0\nsamples = 1\nvalue = [3, 0]\nclass = t", fillcolor="#e58139"] ;
84 -> 86 ;
87 [label="gini = 0.0\nsamples = 1\nvalue = [2, 0]\nclass = t", fillcolor="#e58139"] ;
73 -> 87 ;
88 [label="re_diff <= 0.02\ngini = 0.12\nsamples = 14\nvalue = [1, 15]\nclass = a", fillcolor="#46a4e7"] ;
14 -> 88 ;
89 [label="gini = 0.0\nsamples = 7\nvalue = [0, 9]\nclass = a", fillcolor="#399de5"] ;
88 -> 89 ;
90 [label="window_dev <= 1.05\ngini = 0.24\nsamples = 7\nvalue = [1, 6]\nclass = a", fillcolor="#5aade9"] ;
88 -> 90 ;
91 [label="gini = 0.0\nsamples = 6\nvalue = [0, 6]\nclass = a", fillcolor="#399de5"] ;
90 -> 91 ;
92 [label="gini = 0.0\nsamples = 1\nvalue = [1, 0]\nclass = t", fillcolor="#e58139"] ;
90 -> 92 ;
93 [label="minute_0.1694915254237288 <= 0.5\ngini = 0.06\nsamples = 58\nvalue = [100, 3]\nclass = t", fillcolor="#e6853f"] ;
13 -> 93 ;
94 [label="minute_0.06779661016949153 <= 0.5\ngini = 0.02\nsamples = 57\nvalue = [100, 1]\nclass = t", fillcolor="#e5823b"] ;
93 -> 94 ;
95 [label="hour_0.2608695652173913 <= 0.5\ngini = 0.02\nsamples = 54\nvalue = [96, 1]\nclass = t", fillcolor="#e5823b"] ;
94 -> 95 ;
96 [label="gini = 0.0\nsamples = 43\nvalue = [76, 0]\nclass = t", fillcolor="#e58139"] ;
95 -> 96 ;
97 [label="ab_diff <= -0.64\ngini = 0.09\nsamples = 11\nvalue = [20, 1]\nclass = t", fillcolor="#e68743"] ;
95 -> 97 ;
98 [label="gini = 0.0\nsamples = 4\nvalue = [9, 0]\nclass = t", fillcolor="#e58139"] ;
97 -> 98 ;
99 [label="ab_diff <= -0.64\ngini = 0.15\nsamples = 7\nvalue = [11, 1]\nclass = t", fillcolor="#e78c4b"] ;
97 -> 99 ;
100 [label="minute_0.864406779661017 <= 0.5\ngini = 0.22\nsamples = 4\nvalue = [7, 1]\nclass = t", fillcolor="#e99355"] ;
99 -> 100 ;
101 [label="minute_0.847457627118644 <= 0.5\ngini = 0.28\nsamples = 3\nvalue = [5, 1]\nclass = t", fillcolor="#ea9a61"] ;
100 -> 101 ;
102 [label="gini = 0.0\nsamples = 2\nvalue = [5, 0]\nclass = t", fillcolor="#e58139"] ;
101 -> 102 ;
103 [label="gini = 0.0\nsamples = 1\nvalue = [0, 1]\nclass = a", fillcolor="#399de5"] ;
101 -> 103 ;
104 [label="gini = 0.0\nsamples = 1\nvalue = [2, 0]\nclass = t", fillcolor="#e58139"] ;
100 -> 104 ;
105 [label="gini = 0.0\nsamples = 3\nvalue = [4, 0]\nclass = t", fillcolor="#e58139"] ;
99 -> 105 ;
106 [label="gini = 0.0\nsamples = 3\nvalue = [4, 0]\nclass = t", fillcolor="#e58139"] ;
94 -> 106 ;
107 [label="gini = 0.0\nsamples = 1\nvalue = [0, 2]\nclass = a", fillcolor="#399de5"] ;
93 -> 107 ;
108 [label="gini = 0.0\nsamples = 36\nvalue = [54, 0]\nclass = t", fillcolor="#e58139"] ;
8 -> 108 ;
109 [label="date_0.3666666666666667 <= 0.5\ngini = 0.39\nsamples = 663\nvalue = [280, 790]\nclass = a", fillcolor="#7fc0ee"] ;
5 -> 109 ;
110 [label="window_crossing_point <= -1.39\ngini = 0.38\nsamples = 647\nvalue = [262, 780]\nclass = a", fillcolor="#7cbeee"] ;
109 -> 110 ;
111 [label="date_0.5333333333333333 <= 0.5\ngini = 0.21\nsamples = 279\nvalue = [51, 380]\nclass = a", fillcolor="#54aae8"] ;
110 -> 111 ;
112 [label="ab_diff <= -0.71\ngini = 0.23\nsamples = 254\nvalue = [51, 336]\nclass = a", fillcolor="#57ace9"] ;
111 -> 112 ;
113 [label="gini = 0.0\nsamples = 3\nvalue = [4, 0]\nclass = t", fillcolor="#e58139"] ;
112 -> 113 ;
114 [label="hour_0.34782608695652173 <= 0.5\ngini = 0.22\nsamples = 251\nvalue = [47, 336]\nclass = a", fillcolor="#55abe9"] ;
112 -> 114 ;
115 [label="hour_0.8695652173913043 <= 0.5\ngini = 0.24\nsamples = 222\nvalue = [47, 294]\nclass = a", fillcolor="#59ade9"] ;
114 -> 115 ;
116 [label="date_0.1 <= 0.5\ngini = 0.18\nsamples = 206\nvalue = [31, 285]\nclass = a", fillcolor="#4fa8e8"] ;
115 -> 116 ;
117 [label="date_0.16666666666666669 <= 0.5\ngini = 0.16\nsamples = 203\nvalue = [28, 285]\nclass = a", fillcolor="#4ca7e8"] ;
116 -> 117 ;
118 [label="window_peak <= 1.49\ngini = 0.14\nsamples = 181\nvalue = [21, 254]\nclass = a", fillcolor="#49a5e7"] ;
117 -> 118 ;
119 [label="window_dev <= 1.12\ngini = 0.08\nsamples = 152\nvalue = [9, 220]\nclass = a", fillcolor="#41a1e6"] ;
118 -> 119 ;
120 [label="gini = 0.0\nsamples = 2\nvalue = [2, 0]\nclass = t", fillcolor="#e58139"] ;
119 -> 120 ;
121 [label="minute_0.5932203389830508 <= 0.5\ngini = 0.06\nsamples = 150\nvalue = [7, 220]\nclass = a", fillcolor="#3fa0e6"] ;
119 -> 121 ;
122 [label="minute_0.576271186440678 <= 0.5\ngini = 0.04\nsamples = 148\nvalue = [5, 220]\nclass = a", fillcolor="#3d9fe6"] ;
121 -> 122 ;
123 [label="minute_0.847457627118644 <= 0.5\ngini = 0.04\nsamples = 147\nvalue = [4, 220]\nclass = a", fillcolor="#3d9fe5"] ;
122 -> 123 ;
124 [label="window_mean <= 0.88\ngini = 0.03\nsamples = 145\nvalue = [3, 217]\nclass = a", fillcolor="#3c9ee5"] ;
123 -> 124 ;
125 [label="window_mean <= 0.88\ngini = 0.11\nsamples = 32\nvalue = [3, 50]\nclass = a", fillcolor="#45a3e7"] ;
124 -> 125 ;
126 [label="gini = 0.0\nsamples = 31\nvalue = [0, 50]\nclass = a", fillcolor="#399de5"] ;
125 -> 126 ;
127 [label="gini = 0.0\nsamples = 1\nvalue = [3, 0]\nclass = t", fillcolor="#e58139"] ;
125 -> 127 ;
128 [label="gini = 0.0\nsamples = 113\nvalue = [0, 167]\nclass = a", fillcolor="#399de5"] ;
124 -> 128 ;
129 [label="window_mean <= 0.92\ngini = 0.38\nsamples = 2\nvalue = [1, 3]\nclass = a", fillcolor="#7bbeee"] ;
123 -> 129 ;
130 [label="gini = 0.0\nsamples = 1\nvalue = [1, 0]\nclass = t", fillcolor="#e58139"] ;
129 -> 130 ;
131 [label="gini = 0.0\nsamples = 1\nvalue = [0, 3]\nclass = a", fillcolor="#399de5"] ;
129 -> 131 ;
132 [label="gini = 0.0\nsamples = 1\nvalue = [1, 0]\nclass = t", fillcolor="#e58139"] ;
122 -> 132 ;
133 [label="gini = 0.0\nsamples = 2\nvalue = [2, 0]\nclass = t", fillcolor="#e58139"] ;
121 -> 133 ;
134 [label="total_load <= 1.76\ngini = 0.39\nsamples = 29\nvalue = [12, 34]\nclass = a", fillcolor="#7fc0ee"] ;
118 -> 134 ;
135 [label="gini = 0.0\nsamples = 7\nvalue = [9, 0]\nclass = t", fillcolor="#e58139"] ;
134 -> 135 ;
136 [label="date_0.6666666666666666 <= 0.5\ngini = 0.15\nsamples = 22\nvalue = [3, 34]\nclass = a", fillcolor="#4aa6e7"] ;
134 -> 136 ;
137 [label="gini = 0.0\nsamples = 20\nvalue = [0, 34]\nclass = a", fillcolor="#399de5"] ;
136 -> 137 ;
138 [label="gini = 0.0\nsamples = 2\nvalue = [3, 0]\nclass = t", fillcolor="#e58139"] ;
136 -> 138 ;
139 [label="window_mean <= 0.95\ngini = 0.3\nsamples = 22\nvalue = [7, 31]\nclass = a", fillcolor="#66b3eb"] ;
117 -> 139 ;
140 [label="gini = 0.0\nsamples = 18\nvalue = [0, 31]\nclass = a", fillcolor="#399de5"] ;
139 -> 140 ;
141 [label="gini = 0.0\nsamples = 4\nvalue = [7, 0]\nclass = t", fillcolor="#e58139"] ;
139 -> 141 ;
142 [label="gini = 0.0\nsamples = 3\nvalue = [3, 0]\nclass = t", fillcolor="#e58139"] ;
116 -> 142 ;
143 [label="ab_diff <= -0.69\ngini = 0.46\nsamples = 16\nvalue = [16, 9]\nclass = t", fillcolor="#f4c8a8"] ;
115 -> 143 ;
144 [label="gini = 0.0\nsamples = 9\nvalue = [14, 0]\nclass = t", fillcolor="#e58139"] ;
143 -> 144 ;
145 [label="date_0.0 <= 0.5\ngini = 0.3\nsamples = 7\nvalue = [2, 9]\nclass = a", fillcolor="#65b3eb"] ;
143 -> 145 ;
146 [label="gini = 0.0\nsamples = 2\nvalue = [0, 3]\nclass = a", fillcolor="#399de5"] ;
145 -> 146 ;
147 [label="re_diff <= -0.04\ngini = 0.38\nsamples = 5\nvalue = [2, 6]\nclass = a", fillcolor="#7bbeee"] ;
145 -> 147 ;
148 [label="minute_0.423728813559322 <= 0.5\ngini = 0.5\nsamples = 2\nvalue = [2, 2]\nclass = t", fillcolor="#ffffff"] ;
147 -> 148 ;
149 [label="gini = 0.0\nsamples = 1\nvalue = [0, 2]\nclass = a", fillcolor="#399de5"] ;
148 -> 149 ;
150 [label="gini = 0.0\nsamples = 1\nvalue = [2, 0]\nclass = t", fillcolor="#e58139"] ;
148 -> 150 ;
151 [label="gini = 0.0\nsamples = 3\nvalue = [0, 4]\nclass = a", fillcolor="#399de5"] ;
147 -> 151 ;
152 [label="gini = 0.0\nsamples = 29\nvalue = [0, 42]\nclass = a", fillcolor="#399de5"] ;
114 -> 152 ;
153 [label="gini = 0.0\nsamples = 25\nvalue = [0, 44]\nclass = a", fillcolor="#399de5"] ;
111 -> 153 ;
154 [label="hour_0.7391304347826086 <= 0.5\ngini = 0.45\nsamples = 368\nvalue = [211, 400]\nclass = a", fillcolor="#a1d1f3"] ;
110 -> 154 ;
155 [label="window_mean <= 1.88\ngini = 0.47\nsamples = 323\nvalue = [198, 335]\nclass = a", fillcolor="#aed7f4"] ;
154 -> 155 ;
156 [label="minute_0.03389830508474576 <= 0.5\ngini = 0.49\nsamples = 259\nvalue = [187, 240]\nclass = a", fillcolor="#d3e9f9"] ;
155 -> 156 ;
157 [label="date_0.7666666666666667 <= 0.5\ngini = 0.49\nsamples = 252\nvalue = [178, 237]\nclass = a", fillcolor="#cee7f9"] ;
156 -> 157 ;
158 [label="window_peak <= 0.41\ngini = 0.47\nsamples = 230\nvalue = [141, 237]\nclass = a", fillcolor="#afd7f4"] ;
157 -> 158 ;
159 [label="gini = 0.0\nsamples = 19\nvalue = [24, 0]\nclass = t", fillcolor="#e58139"] ;
158 -> 159 ;
160 [label="weekday_0.3333333333333333 <= 0.5\ngini = 0.44\nsamples = 211\nvalue = [117, 237]\nclass = a", fillcolor="#9bcdf2"] ;
158 -> 160 ;
161 [label="minute_0.0847457627118644 <= 0.5\ngini = 0.41\nsamples = 190\nvalue = [90, 220]\nclass = a", fillcolor="#8ac5f0"] ;
160 -> 161 ;
162 [label="window_dev <= 1.22\ngini = 0.42\nsamples = 186\nvalue = [90, 213]\nclass = a", fillcolor="#8dc6f0"] ;
161 -> 162 ;
163 [label="total_load <= 1.24\ngini = 0.22\nsamples = 10\nvalue = [14, 2]\nclass = t", fillcolor="#e99355"] ;
162 -> 163 ;
164 [label="gini = 0.0\nsamples = 9\nvalue = [14, 0]\nclass = t", fillcolor="#e58139"] ;
163 -> 164 ;
165 [label="gini = 0.0\nsamples = 1\nvalue = [0, 2]\nclass = a", fillcolor="#399de5"] ;
163 -> 165 ;
166 [label="hour_0.43478260869565216 <= 0.5\ngini = 0.39\nsamples = 176\nvalue = [76, 211]\nclass = a", fillcolor="#80c0ee"] ;
162 -> 166 ;
167 [label="ab_diff <= -0.67\ngini = 0.37\nsamples = 168\nvalue = [67, 208]\nclass = a", fillcolor="#79bded"] ;
166 -> 167 ;
168 [label="hour_0.34782608695652173 <= 0.5\ngini = 0.31\nsamples = 107\nvalue = [35, 145]\nclass = a", fillcolor="#69b5eb"] ;
167 -> 168 ;
169 [label="date_0.6 <= 0.5\ngini = 0.27\nsamples = 104\nvalue = [28, 145]\nclass = a", fillcolor="#5fb0ea"] ;
168 -> 169 ;
170 [label="date_0.3 <= 0.5\ngini = 0.2\nsamples = 75\nvalue = [14, 107]\nclass = a", fillcolor="#53aae8"] ;
169 -> 170 ;
171 [label="minute_0.4745762711864407 <= 0.5\ngini = 0.19\nsamples = 74\nvalue = [13, 107]\nclass = a", fillcolor="#51a9e8"] ;
170 -> 171 ;
172 [label="window_dev <= 1.32\ngini = 0.18\nsamples = 73\nvalue = [12, 107]\nclass = a", fillcolor="#4fa8e8"] ;
171 -> 172 ;
173 [label="hour_0.3913043478260869 <= 0.5\ngini = 0.06\nsamples = 37\nvalue = [2, 61]\nclass = a", fillcolor="#3fa0e6"] ;
172 -> 173 ;
174 [label="gini = 0.0\nsamples = 31\nvalue = [0, 53]\nclass = a", fillcolor="#399de5"] ;
173 -> 174 ;
175 [label="re_diff <= -0.01\ngini = 0.32\nsamples = 6\nvalue = [2, 8]\nclass = a", fillcolor="#6ab6ec"] ;
173 -> 175 ;
176 [label="gini = 0.0\nsamples = 3\nvalue = [0, 5]\nclass = a", fillcolor="#399de5"] ;
175 -> 176 ;
177 [label="total_load <= 0.88\ngini = 0.48\nsamples = 3\nvalue = [2, 3]\nclass = a", fillcolor="#bddef6"] ;
175 -> 177 ;
178 [label="gini = 0.0\nsamples = 2\nvalue = [2, 0]\nclass = t", fillcolor="#e58139"] ;
177 -> 178 ;
179 [label="gini = 0.0\nsamples = 1\nvalue = [0, 3]\nclass = a", fillcolor="#399de5"] ;
177 -> 179 ;
180 [label="window_peak <= 1.01\ngini = 0.29\nsamples = 36\nvalue = [10, 46]\nclass = a", fillcolor="#64b2eb"] ;
172 -> 180 ;
181 [label="gini = 0.0\nsamples = 3\nvalue = [4, 0]\nclass = t", fillcolor="#e58139"] ;
180 -> 181 ;
182 [label="minute_0.23728813559322035 <= 0.5\ngini = 0.2\nsamples = 33\nvalue = [6, 46]\nclass = a", fillcolor="#53aae8"] ;
180 -> 182 ;
183 [label="weekday_0.16666666666666666 <= 0.5\ngini = 0.21\nsamples = 32\nvalue = [6, 44]\nclass = a", fillcolor="#54aae9"] ;
182 -> 183 ;
184 [label="window_mean <= 1.4\ngini = 0.18\nsamples = 27\nvalue = [4, 37]\nclass = a", fillcolor="#4ea8e8"] ;
183 -> 184 ;
185 [label="ab_diff <= -0.7\ngini = 0.48\nsamples = 9\nvalue = [4, 6]\nclass = a", fillcolor="#bddef6"] ;
184 -> 185 ;
186 [label="weekday_0.8333333333333333 <= 0.5\ngini = 0.38\nsamples = 3\nvalue = [3, 1]\nclass = t", fillcolor="#eeab7b"] ;
185 -> 186 ;
187 [label="gini = 0.0\nsamples = 2\nvalue = [3, 0]\nclass = t", fillcolor="#e58139"] ;
186 -> 187 ;
188 [label="gini = 0.0\nsamples = 1\nvalue = [0, 1]\nclass = a", fillcolor="#399de5"] ;
186 -> 188 ;
189 [label="total_load <= 0.84\ngini = 0.28\nsamples = 6\nvalue = [1, 5]\nclass = a", fillcolor="#61b1ea"] ;
185 -> 189 ;
190 [label="gini = 0.0\nsamples = 1\nvalue = [1, 0]\nclass = t", fillcolor="#e58139"] ;
189 -> 190 ;
191 [label="gini = 0.0\nsamples = 5\nvalue = [0, 5]\nclass = a", fillcolor="#399de5"] ;
189 -> 191 ;
192 [label="gini = 0.0\nsamples = 18\nvalue = [0, 31]\nclass = a", fillcolor="#399de5"] ;
184 -> 192 ;
193 [label="ab_diff <= -0.71\ngini = 0.35\nsamples = 5\nvalue = [2, 7]\nclass = a", fillcolor="#72b9ec"] ;
183 -> 193 ;
194 [label="gini = 0.0\nsamples = 1\nvalue = [2, 0]\nclass = t", fillcolor="#e58139"] ;
193 -> 194 ;
195 [label="gini = 0.0\nsamples = 4\nvalue = [0, 7]\nclass = a", fillcolor="#399de5"] ;
193 -> 195 ;
196 [label="gini = 0.0\nsamples = 1\nvalue = [0, 2]\nclass = a", fillcolor="#399de5"] ;
182 -> 196 ;
197 [label="gini = 0.0\nsamples = 1\nvalue = [1, 0]\nclass = t", fillcolor="#e58139"] ;
171 -> 197 ;
198 [label="gini = 0.0\nsamples = 1\nvalue = [1, 0]\nclass = t", fillcolor="#e58139"] ;
170 -> 198 ;
199 [label="total_load <= 1.41\ngini = 0.39\nsamples = 29\nvalue = [14, 38]\nclass = a", fillcolor="#82c1ef"] ;
169 -> 199 ;
200 [label="gini = 0.0\nsamples = 5\nvalue = [11, 0]\nclass = t", fillcolor="#e58139"] ;
199 -> 200 ;
201 [label="hour_0.5217391304347826 <= 0.5\ngini = 0.14\nsamples = 24\nvalue = [3, 38]\nclass = a", fillcolor="#49a5e7"] ;
199 -> 201 ;
202 [label="hour_0.6086956521739131 <= 0.5\ngini = 0.15\nsamples = 21\nvalue = [3, 35]\nclass = a", fillcolor="#4aa5e7"] ;
201 -> 202 ;
203 [label="window_mean <= 1.59\ngini = 0.32\nsamples = 8\nvalue = [3, 12]\nclass = a", fillcolor="#6ab6ec"] ;
202 -> 203 ;
204 [label="gini = 0.0\nsamples = 7\nvalue = [0, 12]\nclass = a", fillcolor="#399de5"] ;
203 -> 204 ;
205 [label="gini = 0.0\nsamples = 1\nvalue = [3, 0]\nclass = t", fillcolor="#e58139"] ;
203 -> 205 ;
206 [label="gini = 0.0\nsamples = 13\nvalue = [0, 23]\nclass = a", fillcolor="#399de5"] ;
202 -> 206 ;
207 [label="gini = 0.0\nsamples = 3\nvalue = [0, 3]\nclass = a", fillcolor="#399de5"] ;
201 -> 207 ;
208 [label="gini = 0.0\nsamples = 3\nvalue = [7, 0]\nclass = t", fillcolor="#e58139"] ;
168 -> 208 ;
209 [label="weekday_0.8333333333333333 <= 0.5\ngini = 0.45\nsamples = 61\nvalue = [32, 63]\nclass = a", fillcolor="#9ecff2"] ;
167 -> 209 ;
210 [label="window_mean <= 1.5\ngini = 0.41\nsamples = 58\nvalue = [26, 63]\nclass = a", fillcolor="#8bc5f0"] ;
209 -> 210 ;
211 [label="minute_0.6779661016949152 <= 0.5\ngini = 0.22\nsamples = 48\nvalue = [9, 63]\nclass = a", fillcolor="#55abe9"] ;
210 -> 211 ;
212 [label="hour_0.7826086956521738 <= 0.5\ngini = 0.2\nsamples = 46\nvalue = [8, 62]\nclass = a", fillcolor="#53aae8"] ;
211 -> 212 ;
213 [label="minute_0.8813559322033898 <= 0.5\ngini = 0.22\nsamples = 41\nvalue = [8, 56]\nclass = a", fillcolor="#55abe9"] ;
212 -> 213 ;
214 [label="date_0.9999999999999999 <= 0.5\ngini = 0.12\nsamples = 39\nvalue = [4, 56]\nclass = a", fillcolor="#47a4e7"] ;
213 -> 214 ;
215 [label="weekday_0.6666666666666666 <= 0.5\ngini = 0.14\nsamples = 34\nvalue = [4, 47]\nclass = a", fillcolor="#4aa5e7"] ;
214 -> 215 ;
216 [label="gini = 0.0\nsamples = 28\nvalue = [0, 44]\nclass = a", fillcolor="#399de5"] ;
215 -> 216 ;
217 [label="total_load <= 0.38\ngini = 0.49\nsamples = 6\nvalue = [4, 3]\nclass = t", fillcolor="#f8e0ce"] ;
215 -> 217 ;
218 [label="gini = 0.0\nsamples = 3\nvalue = [4, 0]\nclass = t", fillcolor="#e58139"] ;
217 -> 218 ;
219 [label="gini = 0.0\nsamples = 3\nvalue = [0, 3]\nclass = a", fillcolor="#399de5"] ;
217 -> 219 ;
220 [label="gini = 0.0\nsamples = 5\nvalue = [0, 9]\nclass = a", fillcolor="#399de5"] ;
214 -> 220 ;
221 [label="gini = 0.0\nsamples = 2\nvalue = [4, 0]\nclass = t", fillcolor="#e58139"] ;
213 -> 221 ;
222 [label="gini = 0.0\nsamples = 5\nvalue = [0, 6]\nclass = a", fillcolor="#399de5"] ;
212 -> 222 ;
223 [label="weekday_0.6666666666666666 <= 0.5\ngini = 0.5\nsamples = 2\nvalue = [1, 1]\nclass = t", fillcolor="#ffffff"] ;
211 -> 223 ;
224 [label="gini = 0.0\nsamples = 1\nvalue = [1, 0]\nclass = t", fillcolor="#e58139"] ;
223 -> 224 ;
225 [label="gini = 0.0\nsamples = 1\nvalue = [0, 1]\nclass = a", fillcolor="#399de5"] ;
223 -> 225 ;
226 [label="gini = 0.0\nsamples = 10\nvalue = [17, 0]\nclass = t", fillcolor="#e58139"] ;
210 -> 226 ;
227 [label="gini = 0.0\nsamples = 3\nvalue = [6, 0]\nclass = t", fillcolor="#e58139"] ;
209 -> 227 ;
228 [label="minute_1.0 <= 0.5\ngini = 0.38\nsamples = 8\nvalue = [9, 3]\nclass = t", fillcolor="#eeab7b"] ;
166 -> 228 ;
229 [label="minute_0.23728813559322035 <= 0.5\ngini = 0.47\nsamples = 7\nvalue = [5, 3]\nclass = t", fillcolor="#f5cdb0"] ;
228 -> 229 ;
230 [label="re_diff <= 0.03\ngini = 0.41\nsamples = 6\nvalue = [5, 2]\nclass = t", fillcolor="#efb388"] ;
229 -> 230 ;
231 [label="gini = 0.0\nsamples = 4\nvalue = [5, 0]\nclass = t", fillcolor="#e58139"] ;
230 -> 231 ;
232 [label="gini = 0.0\nsamples = 2\nvalue = [0, 2]\nclass = a", fillcolor="#399de5"] ;
230 -> 232 ;
233 [label="gini = 0.0\nsamples = 1\nvalue = [0, 1]\nclass = a", fillcolor="#399de5"] ;
229 -> 233 ;
234 [label="gini = 0.0\nsamples = 1\nvalue = [4, 0]\nclass = t", fillcolor="#e58139"] ;
228 -> 234 ;
235 [label="gini = 0.0\nsamples = 4\nvalue = [0, 7]\nclass = a", fillcolor="#399de5"] ;
161 -> 235 ;
236 [label="window_mean <= 0.8\ngini = 0.47\nsamples = 21\nvalue = [27, 17]\nclass = t", fillcolor="#f5d0b6"] ;
160 -> 236 ;
237 [label="gini = 0.0\nsamples = 8\nvalue = [0, 17]\nclass = a", fillcolor="#399de5"] ;
236 -> 237 ;
238 [label="gini = 0.0\nsamples = 13\nvalue = [27, 0]\nclass = t", fillcolor="#e58139"] ;
236 -> 238 ;
239 [label="gini = 0.0\nsamples = 22\nvalue = [37, 0]\nclass = t", fillcolor="#e58139"] ;
157 -> 239 ;
240 [label="date_0.9333333333333333 <= 0.5\ngini = 0.38\nsamples = 7\nvalue = [9, 3]\nclass = t", fillcolor="#eeab7b"] ;
156 -> 240 ;
241 [label="ab_diff <= -0.68\ngini = 0.44\nsamples = 6\nvalue = [6, 3]\nclass = t", fillcolor="#f2c09c"] ;
240 -> 241 ;
242 [label="gini = 0.0\nsamples = 3\nvalue = [6, 0]\nclass = t", fillcolor="#e58139"] ;
241 -> 242 ;
243 [label="gini = 0.0\nsamples = 3\nvalue = [0, 3]\nclass = a", fillcolor="#399de5"] ;
241 -> 243 ;
244 [label="gini = 0.0\nsamples = 1\nvalue = [3, 0]\nclass = t", fillcolor="#e58139"] ;
240 -> 244 ;
245 [label="weekday_0.16666666666666666 <= 0.5\ngini = 0.19\nsamples = 64\nvalue = [11, 95]\nclass = a", fillcolor="#50a8e8"] ;
155 -> 245 ;
246 [label="minute_0.8813559322033898 <= 0.5\ngini = 0.11\nsamples = 55\nvalue = [5, 82]\nclass = a", fillcolor="#45a3e7"] ;
245 -> 246 ;
247 [label="total_load <= 1.9\ngini = 0.12\nsamples = 52\nvalue = [5, 76]\nclass = a", fillcolor="#46a3e7"] ;
246 -> 247 ;
248 [label="window_dev <= 1.39\ngini = 0.5\nsamples = 3\nvalue = [3, 3]\nclass = t", fillcolor="#ffffff"] ;
247 -> 248 ;
249 [label="gini = 0.0\nsamples = 1\nvalue = [3, 0]\nclass = t", fillcolor="#e58139"] ;
248 -> 249 ;
250 [label="gini = 0.0\nsamples = 2\nvalue = [0, 3]\nclass = a", fillcolor="#399de5"] ;
248 -> 250 ;
251 [label="date_0.2 <= 0.5\ngini = 0.05\nsamples = 49\nvalue = [2, 73]\nclass = a", fillcolor="#3ea0e6"] ;
247 -> 251 ;
252 [label="gini = 0.0\nsamples = 47\nvalue = [0, 73]\nclass = a", fillcolor="#399de5"] ;
251 -> 252 ;
253 [label="gini = 0.0\nsamples = 2\nvalue = [2, 0]\nclass = t", fillcolor="#e58139"] ;
251 -> 253 ;
254 [label="gini = 0.0\nsamples = 3\nvalue = [0, 6]\nclass = a", fillcolor="#399de5"] ;
246 -> 254 ;
255 [label="window_mean <= 2.32\ngini = 0.43\nsamples = 9\nvalue = [6, 13]\nclass = a", fillcolor="#94caf1"] ;
245 -> 255 ;
256 [label="gini = 0.0\nsamples = 5\nvalue = [0, 12]\nclass = a", fillcolor="#399de5"] ;
255 -> 256 ;
257 [label="hour_0.8260869565217391 <= 0.5\ngini = 0.24\nsamples = 4\nvalue = [6, 1]\nclass = t", fillcolor="#e9965a"] ;
255 -> 257 ;
258 [label="minute_1.0 <= 0.5\ngini = 0.5\nsamples = 2\nvalue = [1, 1]\nclass = t", fillcolor="#ffffff"] ;
257 -> 258 ;
259 [label="gini = 0.0\nsamples = 1\nvalue = [0, 1]\nclass = a", fillcolor="#399de5"] ;
258 -> 259 ;
260 [label="gini = 0.0\nsamples = 1\nvalue = [1, 0]\nclass = t", fillcolor="#e58139"] ;
258 -> 260 ;
261 [label="gini = 0.0\nsamples = 2\nvalue = [5, 0]\nclass = t", fillcolor="#e58139"] ;
257 -> 261 ;
262 [label="weekday_0.8333333333333333 <= 0.5\ngini = 0.28\nsamples = 45\nvalue = [13, 65]\nclass = a", fillcolor="#61b1ea"] ;
154 -> 262 ;
263 [label="minute_0.6610169491525424 <= 0.5\ngini = 0.13\nsamples = 38\nvalue = [5, 65]\nclass = a", fillcolor="#48a5e7"] ;
262 -> 263 ;
264 [label="ab_diff <= -0.71\ngini = 0.06\nsamples = 35\nvalue = [2, 63]\nclass = a", fillcolor="#3fa0e6"] ;
263 -> 264 ;
265 [label="gini = 0.0\nsamples = 1\nvalue = [1, 0]\nclass = t", fillcolor="#e58139"] ;
264 -> 265 ;
266 [label="minute_0.423728813559322 <= 0.5\ngini = 0.03\nsamples = 34\nvalue = [1, 63]\nclass = a", fillcolor="#3c9fe5"] ;
264 -> 266 ;
267 [label="gini = 0.0\nsamples = 33\nvalue = [0, 63]\nclass = a", fillcolor="#399de5"] ;
266 -> 267 ;
268 [label="gini = 0.0\nsamples = 1\nvalue = [1, 0]\nclass = t", fillcolor="#e58139"] ;
266 -> 268 ;
269 [label="weekday_0.16666666666666666 <= 0.5\ngini = 0.48\nsamples = 3\nvalue = [3, 2]\nclass = t", fillcolor="#f6d5bd"] ;
263 -> 269 ;
270 [label="gini = 0.0\nsamples = 1\nvalue = [2, 0]\nclass = t", fillcolor="#e58139"] ;
269 -> 270 ;
271 [label="re_diff <= 0.03\ngini = 0.44\nsamples = 2\nvalue = [1, 2]\nclass = a", fillcolor="#9ccef2"] ;
269 -> 271 ;
272 [label="gini = 0.0\nsamples = 1\nvalue = [1, 0]\nclass = t", fillcolor="#e58139"] ;
271 -> 272 ;
273 [label="gini = 0.0\nsamples = 1\nvalue = [0, 2]\nclass = a", fillcolor="#399de5"] ;
271 -> 273 ;
274 [label="gini = 0.0\nsamples = 7\nvalue = [8, 0]\nclass = t", fillcolor="#e58139"] ;
262 -> 274 ;
275 [label="weekday_0.16666666666666666 <= 0.5\ngini = 0.46\nsamples = 16\nvalue = [18, 10]\nclass = t", fillcolor="#f3c7a7"] ;
109 -> 275 ;
276 [label="minute_0.3898305084745763 <= 0.5\ngini = 0.24\nsamples = 13\nvalue = [18, 3]\nclass = t", fillcolor="#e9965a"] ;
275 -> 276 ;
277 [label="window_mean <= 2.0\ngini = 0.18\nsamples = 12\nvalue = [18, 2]\nclass = t", fillcolor="#e88f4f"] ;
276 -> 277 ;
278 [label="gini = 0.0\nsamples = 11\nvalue = [18, 0]\nclass = t", fillcolor="#e58139"] ;
277 -> 278 ;
279 [label="gini = 0.0\nsamples = 1\nvalue = [0, 2]\nclass = a", fillcolor="#399de5"] ;
277 -> 279 ;
280 [label="gini = 0.0\nsamples = 1\nvalue = [0, 1]\nclass = a", fillcolor="#399de5"] ;
276 -> 280 ;
281 [label="gini = 0.0\nsamples = 3\nvalue = [0, 7]\nclass = a", fillcolor="#399de5"] ;
275 -> 281 ;
282 [label="weekday_0.6666666666666666 <= 0.5\ngini = 0.41\nsamples = 37\nvalue = [15, 38]\nclass = a", fillcolor="#87c4ef"] ;
4 -> 282 ;
283 [label="minute_0.9491525423728814 <= 0.5\ngini = 0.44\nsamples = 33\nvalue = [15, 31]\nclass = a", fillcolor="#99ccf2"] ;
282 -> 283 ;
284 [label="total_load <= 0.46\ngini = 0.42\nsamples = 32\nvalue = [13, 31]\nclass = a", fillcolor="#8cc6f0"] ;
283 -> 284 ;
285 [label="gini = 0.0\nsamples = 9\nvalue = [12, 0]\nclass = t", fillcolor="#e58139"] ;
284 -> 285 ;
286 [label="weekday_0.8333333333333333 <= 0.5\ngini = 0.06\nsamples = 23\nvalue = [1, 31]\nclass = a", fillcolor="#3fa0e6"] ;
284 -> 286 ;
287 [label="total_load <= 1.57\ngini = 0.07\nsamples = 21\nvalue = [1, 28]\nclass = a", fillcolor="#40a0e6"] ;
286 -> 287 ;
288 [label="window_crossing_point <= -1.29\ngini = 0.44\nsamples = 2\nvalue = [1, 2]\nclass = a", fillcolor="#9ccef2"] ;
287 -> 288 ;
289 [label="gini = 0.0\nsamples = 1\nvalue = [0, 2]\nclass = a", fillcolor="#399de5"] ;
288 -> 289 ;
290 [label="gini = 0.0\nsamples = 1\nvalue = [1, 0]\nclass = t", fillcolor="#e58139"] ;
288 -> 290 ;
291 [label="gini = 0.0\nsamples = 19\nvalue = [0, 26]\nclass = a", fillcolor="#399de5"] ;
287 -> 291 ;
292 [label="gini = 0.0\nsamples = 2\nvalue = [0, 3]\nclass = a", fillcolor="#399de5"] ;
286 -> 292 ;
293 [label="gini = 0.0\nsamples = 1\nvalue = [2, 0]\nclass = t", fillcolor="#e58139"] ;
283 -> 293 ;
294 [label="gini = 0.0\nsamples = 4\nvalue = [0, 7]\nclass = a", fillcolor="#399de5"] ;
282 -> 294 ;
295 [label="window_crossing_point <= -1.39\ngini = 0.41\nsamples = 8864\nvalue = [10033, 3986]\nclass = t", fillcolor="#efb388"] ;
3 -> 295 ;
296 [label="date_0.9666666666666667 <= 0.5\ngini = 0.48\nsamples = 2095\nvalue = [1965, 1378]\nclass = t", fillcolor="#f7d9c4"] ;
295 -> 296 ;
297 [label="date_0.23333333333333334 <= 0.5\ngini = 0.49\nsamples = 2052\nvalue = [1901, 1369]\nclass = t", fillcolor="#f8dcc8"] ;
296 -> 297 ;
298 [label="window_mean <= 1.14\ngini = 0.48\nsamples = 1964\nvalue = [1839, 1283]\nclass = t", fillcolor="#f7d9c3"] ;
297 -> 298 ;
299 [label="minute_0.9152542372881356 <= 0.5\ngini = 0.27\nsamples = 1055\nvalue = [1390, 271]\nclass = t", fillcolor="#ea9a60"] ;
298 -> 299 ;
300 [label="hour_0.8695652173913043 <= 0.5\ngini = 0.27\nsamples = 1041\nvalue = [1380, 261]\nclass = t", fillcolor="#ea995e"] ;
299 -> 300 ;
301 [label="window_dev <= 1.11\ngini = 0.28\nsamples = 967\nvalue = [1269, 260]\nclass = t", fillcolor="#ea9b62"] ;
300 -> 301 ;
302 [label="gini = 0.0\nsamples = 390\nvalue = [606, 0]\nclass = t", fillcolor="#e58139"] ;
301 -> 302 ;
303 [label="date_0.4 <= 0.5\ngini = 0.4\nsamples = 577\nvalue = [663, 260]\nclass = t", fillcolor="#efb287"] ;
301 -> 303 ;
304 [label="total_load <= 0.74\ngini = 0.4\nsamples = 566\nvalue = [656, 250]\nclass = t", fillcolor="#efb184"] ;
303 -> 304 ;
305 [label="minute_0.1864406779661017 <= 0.5\ngini = 0.04\nsamples = 378\nvalue = [601, 13]\nclass = t", fillcolor="#e6843d"] ;
304 -> 305 ;
306 [label="ab_diff <= 2.58\ngini = 0.03\nsamples = 373\nvalue = [595, 10]\nclass = t", fillcolor="#e5833c"] ;
305 -> 306 ;
307 [label="weekday_0.0 <= 0.5\ngini = 0.01\nsamples = 353\nvalue = [568, 4]\nclass = t", fillcolor="#e5823a"] ;
306 -> 307 ;
308 [label="hour_0.6086956521739131 <= 0.5\ngini = 0.02\nsamples = 313\nvalue = [500, 4]\nclass = t", fillcolor="#e5823b"] ;
307 -> 308 ;
309 [label="hour_0.6956521739130435 <= 0.5\ngini = 0.01\nsamples = 277\nvalue = [437, 2]\nclass = t", fillcolor="#e5823a"] ;
308 -> 309 ;
310 [label="weekday_1.0 <= 0.5\ngini = 0.0\nsamples = 251\nvalue = [399, 1]\nclass = t", fillcolor="#e58139"] ;
309 -> 310 ;
311 [label="weekday_0.16666666666666666 <= 0.5\ngini = 0.01\nsamples = 216\nvalue = [334, 1]\nclass = t", fillcolor="#e5813a"] ;
310 -> 311 ;
312 [label="date_0.03333333333333333 <= 0.5\ngini = 0.01\nsamples = 172\nvalue = [267, 1]\nclass = t", fillcolor="#e5813a"] ;
311 -> 312 ;
313 [label="gini = 0.0\nsamples = 159\nvalue = [246, 0]\nclass = t", fillcolor="#e58139"] ;
312 -> 313 ;
314 [label="minute_0.7796610169491526 <= 0.5\ngini = 0.09\nsamples = 13\nvalue = [21, 1]\nclass = t", fillcolor="#e68742"] ;
312 -> 314 ;
315 [label="minute_0.4745762711864407 <= 0.5\ngini = 0.1\nsamples = 12\nvalue = [18, 1]\nclass = t", fillcolor="#e68844"] ;
314 -> 315 ;
316 [label="minute_0.05084745762711865 <= 0.5\ngini = 0.11\nsamples = 11\nvalue = [16, 1]\nclass = t", fillcolor="#e78945"] ;
315 -> 316 ;
317 [label="gini = 0.0\nsamples = 10\nvalue = [16, 0]\nclass = t", fillcolor="#e58139"] ;
316 -> 317 ;
318 [label="gini = 0.0\nsamples = 1\nvalue = [0, 1]\nclass = a", fillcolor="#399de5"] ;
316 -> 318 ;
319 [label="gini = 0.0\nsamples = 1\nvalue = [2, 0]\nclass = t", fillcolor="#e58139"] ;
315 -> 319 ;
320 [label="gini = 0.0\nsamples = 1\nvalue = [3, 0]\nclass = t", fillcolor="#e58139"] ;
314 -> 320 ;
321 [label="gini = 0.0\nsamples = 44\nvalue = [67, 0]\nclass = t", fillcolor="#e58139"] ;
311 -> 321 ;
322 [label="gini = 0.0\nsamples = 35\nvalue = [65, 0]\nclass = t", fillcolor="#e58139"] ;
310 -> 322 ;
323 [label="date_0.0 <= 0.5\ngini = 0.05\nsamples = 26\nvalue = [38, 1]\nclass = t", fillcolor="#e6843e"] ;
309 -> 323 ;
324 [label="date_0.16666666666666669 <= 0.5\ngini = 0.06\nsamples = 23\nvalue = [32, 1]\nclass = t", fillcolor="#e6853f"] ;
323 -> 324 ;
325 [label="weekday_0.6666666666666666 <= 0.5\ngini = 0.07\nsamples = 18\nvalue = [25, 1]\nclass = t", fillcolor="#e68641"] ;
324 -> 325 ;
326 [label="date_0.2 <= 0.5\ngini = 0.09\nsamples = 13\nvalue = [20, 1]\nclass = t", fillcolor="#e68743"] ;
325 -> 326 ;
327 [label="gini = 0.0\nsamples = 8\nvalue = [12, 0]\nclass = t", fillcolor="#e58139"] ;
326 -> 327 ;
328 [label="minute_0.288135593220339 <= 0.5\ngini = 0.2\nsamples = 5\nvalue = [8, 1]\nclass = t", fillcolor="#e89152"] ;
326 -> 328 ;
329 [label="gini = 0.0\nsamples = 4\nvalue = [8, 0]\nclass = t", fillcolor="#e58139"] ;
328 -> 329 ;
330 [label="gini = 0.0\nsamples = 1\nvalue = [0, 1]\nclass = a", fillcolor="#399de5"] ;
328 -> 330 ;
331 [label="gini = 0.0\nsamples = 5\nvalue = [5, 0]\nclass = t", fillcolor="#e58139"] ;
325 -> 331 ;
332 [label="gini = 0.0\nsamples = 5\nvalue = [7, 0]\nclass = t", fillcolor="#e58139"] ;
324 -> 332 ;
333 [label="gini = 0.0\nsamples = 3\nvalue = [6, 0]\nclass = t", fillcolor="#e58139"] ;
323 -> 333 ;
334 [label="window_peak <= 0.43\ngini = 0.06\nsamples = 36\nvalue = [63, 2]\nclass = t", fillcolor="#e6853f"] ;
308 -> 334 ;
335 [label="ab_diff <= 1.58\ngini = 0.41\nsamples = 3\nvalue = [5, 2]\nclass = t", fillcolor="#efb388"] ;
334 -> 335 ;
336 [label="minute_0.5254237288135594 <= 0.5\ngini = 0.44\nsamples = 2\nvalue = [1, 2]\nclass = a", fillcolor="#9ccef2"] ;
335 -> 336 ;
337 [label="gini = 0.0\nsamples = 1\nvalue = [1, 0]\nclass = t", fillcolor="#e58139"] ;
336 -> 337 ;
338 [label="gini = 0.0\nsamples = 1\nvalue = [0, 2]\nclass = a", fillcolor="#399de5"] ;
336 -> 338 ;
339 [label="gini = 0.0\nsamples = 1\nvalue = [4, 0]\nclass = t", fillcolor="#e58139"] ;
335 -> 339 ;
340 [label="gini = 0.0\nsamples = 33\nvalue = [58, 0]\nclass = t", fillcolor="#e58139"] ;
334 -> 340 ;
341 [label="gini = 0.0\nsamples = 40\nvalue = [68, 0]\nclass = t", fillcolor="#e58139"] ;
307 -> 341 ;
342 [label="weekday_0.3333333333333333 <= 0.5\ngini = 0.3\nsamples = 20\nvalue = [27, 6]\nclass = t", fillcolor="#eb9d65"] ;
306 -> 342 ;
343 [label="gini = 0.0\nsamples = 12\nvalue = [21, 0]\nclass = t", fillcolor="#e58139"] ;
342 -> 343 ;
344 [label="total_load <= -0.4\ngini = 0.5\nsamples = 8\nvalue = [6, 6]\nclass = t", fillcolor="#ffffff"] ;
342 -> 344 ;
345 [label="gini = 0.0\nsamples = 4\nvalue = [6, 0]\nclass = t", fillcolor="#e58139"] ;
344 -> 345 ;
346 [label="gini = 0.0\nsamples = 4\nvalue = [0, 6]\nclass = a", fillcolor="#399de5"] ;
344 -> 346 ;
347 [label="hour_0.9565217391304348 <= 0.5\ngini = 0.44\nsamples = 5\nvalue = [6, 3]\nclass = t", fillcolor="#f2c09c"] ;
305 -> 347 ;
348 [label="gini = 0.0\nsamples = 4\nvalue = [6, 0]\nclass = t", fillcolor="#e58139"] ;
347 -> 348 ;
349 [label="gini = 0.0\nsamples = 1\nvalue = [0, 3]\nclass = a", fillcolor="#399de5"] ;
347 -> 349 ;
350 [label="weekday_0.3333333333333333 <= 0.5\ngini = 0.31\nsamples = 188\nvalue = [55, 237]\nclass = a", fillcolor="#67b4eb"] ;
304 -> 350 ;
351 [label="hour_0.9565217391304348 <= 0.5\ngini = 0.14\nsamples = 156\nvalue = [18, 223]\nclass = a", fillcolor="#49a5e7"] ;
350 -> 351 ;
352 [label="hour_0.0 <= 0.5\ngini = 0.11\nsamples = 152\nvalue = [14, 219]\nclass = a", fillcolor="#46a3e7"] ;
351 -> 352 ;
353 [label="date_0.3333333333333333 <= 0.5\ngini = 0.09\nsamples = 149\nvalue = [11, 217]\nclass = a", fillcolor="#43a2e6"] ;
352 -> 353 ;
354 [label="weekday_0.8333333333333333 <= 0.5\ngini = 0.07\nsamples = 145\nvalue = [8, 215]\nclass = a", fillcolor="#40a1e6"] ;
353 -> 354 ;
355 [label="gini = 0.0\nsamples = 126\nvalue = [0, 198]\nclass = a", fillcolor="#399de5"] ;
354 -> 355 ;
356 [label="minute_0.559322033898305 <= 0.5\ngini = 0.44\nsamples = 19\nvalue = [8, 17]\nclass = a", fillcolor="#96cbf1"] ;
354 -> 356 ;
357 [label="hour_0.7391304347826086 <= 0.5\ngini = 0.41\nsamples = 18\nvalue = [7, 17]\nclass = a", fillcolor="#8bc5f0"] ;
356 -> 357 ;
358 [label="minute_0.8813559322033898 <= 0.5\ngini = 0.1\nsamples = 13\nvalue = [1, 17]\nclass = a", fillcolor="#45a3e7"] ;
357 -> 358 ;
359 [label="hour_0.6521739130434783 <= 0.5\ngini = 0.13\nsamples = 11\nvalue = [1, 13]\nclass = a", fillcolor="#48a5e7"] ;
358 -> 359 ;
360 [label="window_dev <= 1.37\ngini = 0.17\nsamples = 9\nvalue = [1, 10]\nclass = a", fillcolor="#4da7e8"] ;
359 -> 360 ;
361 [label="gini = 0.0\nsamples = 8\nvalue = [0, 10]\nclass = a", fillcolor="#399de5"] ;
360 -> 361 ;
362 [label="gini = 0.0\nsamples = 1\nvalue = [1, 0]\nclass = t", fillcolor="#e58139"] ;
360 -> 362 ;
363 [label="gini = 0.0\nsamples = 2\nvalue = [0, 3]\nclass = a", fillcolor="#399de5"] ;
359 -> 363 ;
364 [label="gini = 0.0\nsamples = 2\nvalue = [0, 4]\nclass = a", fillcolor="#399de5"] ;
358 -> 364 ;
365 [label="gini = 0.0\nsamples = 5\nvalue = [6, 0]\nclass = t", fillcolor="#e58139"] ;
357 -> 365 ;
366 [label="gini = 0.0\nsamples = 1\nvalue = [1, 0]\nclass = t", fillcolor="#e58139"] ;
356 -> 366 ;
367 [label="total_load <= 1.35\ngini = 0.48\nsamples = 4\nvalue = [3, 2]\nclass = t", fillcolor="#f6d5bd"] ;
353 -> 367 ;
368 [label="gini = 0.0\nsamples = 2\nvalue = [3, 0]\nclass = t", fillcolor="#e58139"] ;
367 -> 368 ;
369 [label="gini = 0.0\nsamples = 2\nvalue = [0, 2]\nclass = a", fillcolor="#399de5"] ;
367 -> 369 ;
370 [label="minute_0.1016949152542373 <= 0.5\ngini = 0.48\nsamples = 3\nvalue = [3, 2]\nclass = t", fillcolor="#f6d5bd"] ;
352 -> 370 ;
371 [label="ab_diff <= 1.72\ngini = 0.38\nsamples = 2\nvalue = [3, 1]\nclass = t", fillcolor="#eeab7b"] ;
370 -> 371 ;
372 [label="gini = 0.0\nsamples = 1\nvalue = [0, 1]\nclass = a", fillcolor="#399de5"] ;
371 -> 372 ;
373 [label="gini = 0.0\nsamples = 1\nvalue = [3, 0]\nclass = t", fillcolor="#e58139"] ;
371 -> 373 ;
374 [label="gini = 0.0\nsamples = 1\nvalue = [0, 1]\nclass = a", fillcolor="#399de5"] ;
370 -> 374 ;
375 [label="total_load <= 0.84\ngini = 0.5\nsamples = 4\nvalue = [4, 4]\nclass = t", fillcolor="#ffffff"] ;
351 -> 375 ;
376 [label="gini = 0.0\nsamples = 1\nvalue = [4, 0]\nclass = t", fillcolor="#e58139"] ;
375 -> 376 ;
377 [label="gini = 0.0\nsamples = 3\nvalue = [0, 4]\nclass = a", fillcolor="#399de5"] ;
375 -> 377 ;
378 [label="date_0.6666666666666666 <= 0.5\ngini = 0.4\nsamples = 32\nvalue = [37, 14]\nclass = t", fillcolor="#efb184"] ;
350 -> 378 ;
379 [label="gini = 0.0\nsamples = 9\nvalue = [0, 14]\nclass = a", fillcolor="#399de5"] ;
378 -> 379 ;
380 [label="gini = 0.0\nsamples = 23\nvalue = [37, 0]\nclass = t", fillcolor="#e58139"] ;
378 -> 380 ;
381 [label="window_peak <= 1.06\ngini = 0.48\nsamples = 11\nvalue = [7, 10]\nclass = a", fillcolor="#c4e2f7"] ;
303 -> 381 ;
382 [label="re_diff <= 0.27\ngini = 0.17\nsamples = 10\nvalue = [1, 10]\nclass = a", fillcolor="#4da7e8"] ;
381 -> 382 ;
383 [label="gini = 0.0\nsamples = 9\nvalue = [0, 10]\nclass = a", fillcolor="#399de5"] ;
382 -> 383 ;
384 [label="gini = 0.0\nsamples = 1\nvalue = [1, 0]\nclass = t", fillcolor="#e58139"] ;
382 -> 384 ;
385 [label="gini = 0.0\nsamples = 1\nvalue = [6, 0]\nclass = t", fillcolor="#e58139"] ;
381 -> 385 ;
386 [label="re_diff <= 1.87\ngini = 0.02\nsamples = 74\nvalue = [111, 1]\nclass = t", fillcolor="#e5823b"] ;
300 -> 386 ;
387 [label="gini = 0.0\nsamples = 66\nvalue = [102, 0]\nclass = t", fillcolor="#e58139"] ;
386 -> 387 ;
388 [label="minute_0.7627118644067796 <= 0.5\ngini = 0.18\nsamples = 8\nvalue = [9, 1]\nclass = t", fillcolor="#e88f4f"] ;
386 -> 388 ;
389 [label="window_mean <= 1.06\ngini = 0.2\nsamples = 7\nvalue = [8, 1]\nclass = t", fillcolor="#e89152"] ;
388 -> 389 ;
390 [label="gini = 0.0\nsamples = 6\nvalue = [8, 0]\nclass = t", fillcolor="#e58139"] ;
389 -> 390 ;
391 [label="gini = 0.0\nsamples = 1\nvalue = [0, 1]\nclass = a", fillcolor="#399de5"] ;
389 -> 391 ;
392 [label="gini = 0.0\nsamples = 1\nvalue = [1, 0]\nclass = t", fillcolor="#e58139"] ;
388 -> 392 ;
393 [label="date_0.16666666666666669 <= 0.5\ngini = 0.5\nsamples = 14\nvalue = [10, 10]\nclass = t", fillcolor="#ffffff"] ;
299 -> 393 ;
394 [label="total_load <= 0.65\ngini = 0.49\nsamples = 13\nvalue = [8, 10]\nclass = a", fillcolor="#d7ebfa"] ;
393 -> 394 ;
395 [label="gini = 0.0\nsamples = 6\nvalue = [8, 0]\nclass = t", fillcolor="#e58139"] ;
394 -> 395 ;
396 [label="gini = 0.0\nsamples = 7\nvalue = [0, 10]\nclass = a", fillcolor="#399de5"] ;
394 -> 396 ;
397 [label="gini = 0.0\nsamples = 1\nvalue = [2, 0]\nclass = t", fillcolor="#e58139"] ;
393 -> 397 ;
398 [label="window_crossing_point <= -1.57\ngini = 0.43\nsamples = 909\nvalue = [449, 1012]\nclass = a", fillcolor="#91c8f1"] ;
298 -> 398 ;
399 [label="window_mean <= 1.75\ngini = 0.49\nsamples = 524\nvalue = [370, 481]\nclass = a", fillcolor="#d1e8f9"] ;
398 -> 399 ;
400 [label="hour_0.0 <= 0.5\ngini = 0.46\nsamples = 356\nvalue = [202, 373]\nclass = a", fillcolor="#a4d2f3"] ;
399 -> 400 ;
401 [label="ab_diff <= 1.93\ngini = 0.46\nsamples = 335\nvalue = [195, 347]\nclass = a", fillcolor="#a8d4f4"] ;
400 -> 401 ;
402 [label="ab_diff <= 1.2\ngini = 0.42\nsamples = 293\nvalue = [145, 332]\nclass = a", fillcolor="#8fc8f0"] ;
401 -> 402 ;
403 [label="hour_0.3913043478260869 <= 0.5\ngini = 0.1\nsamples = 13\nvalue = [18, 1]\nclass = t", fillcolor="#e68844"] ;
402 -> 403 ;
404 [label="gini = 0.0\nsamples = 10\nvalue = [15, 0]\nclass = t", fillcolor="#e58139"] ;
403 -> 404 ;
405 [label="re_diff <= 1.23\ngini = 0.38\nsamples = 3\nvalue = [3, 1]\nclass = t", fillcolor="#eeab7b"] ;
403 -> 405 ;
406 [label="gini = 0.0\nsamples = 2\nvalue = [3, 0]\nclass = t", fillcolor="#e58139"] ;
405 -> 406 ;
407 [label="gini = 0.0\nsamples = 1\nvalue = [0, 1]\nclass = a", fillcolor="#399de5"] ;
405 -> 407 ;
408 [label="date_0.5333333333333333 <= 0.5\ngini = 0.4\nsamples = 280\nvalue = [127, 331]\nclass = a", fillcolor="#85c3ef"] ;
402 -> 408 ;
409 [label="weekday_0.5 <= 0.5\ngini = 0.41\nsamples = 263\nvalue = [125, 305]\nclass = a", fillcolor="#8ac5f0"] ;
408 -> 409 ;
410 [label="hour_0.34782608695652173 <= 0.5\ngini = 0.43\nsamples = 234\nvalue = [121, 264]\nclass = a", fillcolor="#94caf1"] ;
409 -> 410 ;
411 [label="weekday_0.8333333333333333 <= 0.5\ngini = 0.43\nsamples = 228\nvalue = [115, 260]\nclass = a", fillcolor="#91c8f0"] ;
410 -> 411 ;
412 [label="minute_0.8305084745762712 <= 0.5\ngini = 0.44\nsamples = 188\nvalue = [98, 197]\nclass = a", fillcolor="#9bcef2"] ;
411 -> 412 ;
413 [label="date_0.5 <= 0.5\ngini = 0.44\nsamples = 186\nvalue = [94, 197]\nclass = a", fillcolor="#97ccf1"] ;
412 -> 413 ;
414 [label="hour_0.7391304347826086 <= 0.5\ngini = 0.45\nsamples = 171\nvalue = [92, 175]\nclass = a", fillcolor="#a1d1f3"] ;
413 -> 414 ;
415 [label="window_peak <= 1.3\ngini = 0.47\nsamples = 152\nvalue = [91, 146]\nclass = a", fillcolor="#b4daf5"] ;
414 -> 415 ;
416 [label="total_load <= 0.9\ngini = 0.4\nsamples = 107\nvalue = [46, 119]\nclass = a", fillcolor="#86c3ef"] ;
415 -> 416 ;
417 [label="ab_diff <= 1.22\ngini = 0.12\nsamples = 34\nvalue = [44, 3]\nclass = t", fillcolor="#e78a46"] ;
416 -> 417 ;
418 [label="gini = 0.0\nsamples = 1\nvalue = [0, 1]\nclass = a", fillcolor="#399de5"] ;
417 -> 418 ;
419 [label="minute_0.05084745762711865 <= 0.5\ngini = 0.08\nsamples = 33\nvalue = [44, 2]\nclass = t", fillcolor="#e68742"] ;
417 -> 419 ;
420 [label="weekday_0.0 <= 0.5\ngini = 0.04\nsamples = 32\nvalue = [44, 1]\nclass = t", fillcolor="#e6843d"] ;
419 -> 420 ;
421 [label="gini = 0.0\nsamples = 24\nvalue = [35, 0]\nclass = t", fillcolor="#e58139"] ;
420 -> 421 ;
422 [label="ab_diff <= 1.61\ngini = 0.18\nsamples = 8\nvalue = [9, 1]\nclass = t", fillcolor="#e88f4f"] ;
420 -> 422 ;
423 [label="gini = 0.0\nsamples = 1\nvalue = [0, 1]\nclass = a", fillcolor="#399de5"] ;
422 -> 423 ;
424 [label="gini = 0.0\nsamples = 7\nvalue = [9, 0]\nclass = t", fillcolor="#e58139"] ;
422 -> 424 ;
425 [label="gini = 0.0\nsamples = 1\nvalue = [0, 1]\nclass = a", fillcolor="#399de5"] ;
419 -> 425 ;
426 [label="ab_diff <= 1.28\ngini = 0.03\nsamples = 73\nvalue = [2, 116]\nclass = a", fillcolor="#3c9fe5"] ;
416 -> 426 ;
427 [label="ab_diff <= 1.25\ngini = 0.32\nsamples = 4\nvalue = [1, 4]\nclass = a", fillcolor="#6ab6ec"] ;
426 -> 427 ;
428 [label="gini = 0.0\nsamples = 3\nvalue = [0, 4]\nclass = a", fillcolor="#399de5"] ;
427 -> 428 ;
429 [label="gini = 0.0\nsamples = 1\nvalue = [1, 0]\nclass = t", fillcolor="#e58139"] ;
427 -> 429 ;
430 [label="date_0.16666666666666669 <= 0.5\ngini = 0.02\nsamples = 69\nvalue = [1, 112]\nclass = a", fillcolor="#3b9ee5"] ;
426 -> 430 ;
431 [label="window_mean <= 1.34\ngini = 0.02\nsamples = 60\nvalue = [1, 95]\nclass = a", fillcolor="#3b9ee5"] ;
430 -> 431 ;
432 [label="gini = 0.0\nsamples = 34\nvalue = [0, 54]\nclass = a", fillcolor="#399de5"] ;
431 -> 432 ;
433 [label="window_dev <= 1.06\ngini = 0.05\nsamples = 26\nvalue = [1, 41]\nclass = a", fillcolor="#3e9fe6"] ;
431 -> 433 ;
434 [label="window_peak <= 0.55\ngini = 0.44\nsamples = 3\nvalue = [1, 2]\nclass = a", fillcolor="#9ccef2"] ;
433 -> 434 ;
435 [label="gini = 0.0\nsamples = 1\nvalue = [1, 0]\nclass = t", fillcolor="#e58139"] ;
434 -> 435 ;
436 [label="gini = 0.0\nsamples = 2\nvalue = [0, 2]\nclass = a", fillcolor="#399de5"] ;
434 -> 436 ;
437 [label="gini = 0.0\nsamples = 23\nvalue = [0, 39]\nclass = a", fillcolor="#399de5"] ;
433 -> 437 ;
438 [label="gini = 0.0\nsamples = 9\nvalue = [0, 17]\nclass = a", fillcolor="#399de5"] ;
430 -> 438 ;
439 [label="date_0.43333333333333335 <= 0.5\ngini = 0.47\nsamples = 45\nvalue = [45, 27]\nclass = t", fillcolor="#f5cdb0"] ;
415 -> 439 ;
440 [label="window_peak <= 3.03\ngini = 0.46\nsamples = 44\nvalue = [45, 25]\nclass = t", fillcolor="#f3c7a7"] ;
439 -> 440 ;
441 [label="window_dev <= 1.55\ngini = 0.42\nsamples = 41\nvalue = [45, 19]\nclass = t", fillcolor="#f0b68d"] ;
440 -> 441 ;
442 [label="hour_0.5652173913043478 <= 0.5\ngini = 0.46\nsamples = 11\nvalue = [6, 11]\nclass = a", fillcolor="#a5d2f3"] ;
441 -> 442 ;
443 [label="weekday_1.0 <= 0.5\ngini = 0.26\nsamples = 9\nvalue = [2, 11]\nclass = a", fillcolor="#5dafea"] ;
442 -> 443 ;
444 [label="minute_0.5932203389830508 <= 0.5\ngini = 0.44\nsamples = 3\nvalue = [2, 4]\nclass = a", fillcolor="#9ccef2"] ;
443 -> 444 ;
445 [label="minute_0.4915254237288136 <= 0.5\ngini = 0.5\nsamples = 2\nvalue = [2, 2]\nclass = t", fillcolor="#ffffff"] ;
444 -> 445 ;
446 [label="gini = 0.0\nsamples = 1\nvalue = [0, 2]\nclass = a", fillcolor="#399de5"] ;
445 -> 446 ;
447 [label="gini = 0.0\nsamples = 1\nvalue = [2, 0]\nclass = t", fillcolor="#e58139"] ;
445 -> 447 ;
448 [label="gini = 0.0\nsamples = 1\nvalue = [0, 2]\nclass = a", fillcolor="#399de5"] ;
444 -> 448 ;
449 [label="gini = 0.0\nsamples = 6\nvalue = [0, 7]\nclass = a", fillcolor="#399de5"] ;
443 -> 449 ;
450 [label="gini = 0.0\nsamples = 2\nvalue = [4, 0]\nclass = t", fillcolor="#e58139"] ;
442 -> 450 ;
451 [label="minute_0.2711864406779661 <= 0.5\ngini = 0.28\nsamples = 30\nvalue = [39, 8]\nclass = t", fillcolor="#ea9b62"] ;
441 -> 451 ;
452 [label="minute_0.2542372881355932 <= 0.5\ngini = 0.23\nsamples = 29\nvalue = [39, 6]\nclass = t", fillcolor="#e99457"] ;
451 -> 452 ;
453 [label="minute_0.6271186440677966 <= 0.5\ngini = 0.18\nsamples = 27\nvalue = [37, 4]\nclass = t", fillcolor="#e88f4e"] ;
452 -> 453 ;
454 [label="date_0.1 <= 0.5\ngini = 0.14\nsamples = 26\nvalue = [37, 3]\nclass = t", fillcolor="#e78b49"] ;
453 -> 454 ;
455 [label="minute_0.7966101694915254 <= 0.5\ngini = 0.19\nsamples = 19\nvalue = [26, 3]\nclass = t", fillcolor="#e89050"] ;
454 -> 455 ;
456 [label="minute_0.847457627118644 <= 0.5\ngini = 0.2\nsamples = 18\nvalue = [24, 3]\nclass = t", fillcolor="#e89152"] ;
455 -> 456 ;
457 [label="window_peak <= 1.48\ngini = 0.21\nsamples = 17\nvalue = [22, 3]\nclass = t", fillcolor="#e99254"] ;
456 -> 457 ;
458 [label="gini = 0.0\nsamples = 5\nvalue = [9, 0]\nclass = t", fillcolor="#e58139"] ;
457 -> 458 ;
459 [label="window_dev <= 1.67\ngini = 0.3\nsamples = 12\nvalue = [13, 3]\nclass = t", fillcolor="#eb9e67"] ;
457 -> 459 ;
460 [label="window_mean <= 1.65\ngini = 0.38\nsamples = 4\nvalue = [1, 3]\nclass = a", fillcolor="#7bbeee"] ;
459 -> 460 ;
461 [label="hour_0.43478260869565216 <= 0.5\ngini = 0.5\nsamples = 2\nvalue = [1, 1]\nclass = t", fillcolor="#ffffff"] ;
460 -> 461 ;
462 [label="gini = 0.0\nsamples = 1\nvalue = [0, 1]\nclass = a", fillcolor="#399de5"] ;
461 -> 462 ;
463 [label="gini = 0.0\nsamples = 1\nvalue = [1, 0]\nclass = t", fillcolor="#e58139"] ;
461 -> 463 ;
464 [label="gini = 0.0\nsamples = 2\nvalue = [0, 2]\nclass = a", fillcolor="#399de5"] ;
460 -> 464 ;
465 [label="gini = 0.0\nsamples = 8\nvalue = [12, 0]\nclass = t", fillcolor="#e58139"] ;
459 -> 465 ;
466 [label="gini = 0.0\nsamples = 1\nvalue = [2, 0]\nclass = t", fillcolor="#e58139"] ;
456 -> 466 ;
467 [label="gini = 0.0\nsamples = 1\nvalue = [2, 0]\nclass = t", fillcolor="#e58139"] ;
455 -> 467 ;
468 [label="gini = 0.0\nsamples = 7\nvalue = [11, 0]\nclass = t", fillcolor="#e58139"] ;
454 -> 468 ;
469 [label="gini = 0.0\nsamples = 1\nvalue = [0, 1]\nclass = a", fillcolor="#399de5"] ;
453 -> 469 ;
470 [label="weekday_0.16666666666666666 <= 0.5\ngini = 0.5\nsamples = 2\nvalue = [2, 2]\nclass = t", fillcolor="#ffffff"] ;
452 -> 470 ;
471 [label="gini = 0.0\nsamples = 1\nvalue = [2, 0]\nclass = t", fillcolor="#e58139"] ;
470 -> 471 ;
472 [label="gini = 0.0\nsamples = 1\nvalue = [0, 2]\nclass = a", fillcolor="#399de5"] ;
470 -> 472 ;
473 [label="gini = 0.0\nsamples = 1\nvalue = [0, 2]\nclass = a", fillcolor="#399de5"] ;
451 -> 473 ;
474 [label="gini = 0.0\nsamples = 3\nvalue = [0, 6]\nclass = a", fillcolor="#399de5"] ;
440 -> 474 ;
475 [label="gini = 0.0\nsamples = 1\nvalue = [0, 2]\nclass = a", fillcolor="#399de5"] ;
439 -> 475 ;
476 [label="ab_diff <= 1.77\ngini = 0.06\nsamples = 19\nvalue = [1, 29]\nclass = a", fillcolor="#40a0e6"] ;
414 -> 476 ;
477 [label="gini = 0.0\nsamples = 16\nvalue = [0, 26]\nclass = a", fillcolor="#399de5"] ;
476 -> 477 ;
478 [label="window_peak <= 1.1\ngini = 0.38\nsamples = 3\nvalue = [1, 3]\nclass = a", fillcolor="#7bbeee"] ;
476 -> 478 ;
479 [label="minute_0.1864406779661017 <= 0.5\ngini = 0.44\nsamples = 2\nvalue = [1, 2]\nclass = a", fillcolor="#9ccef2"] ;
478 -> 479 ;
480 [label="gini = 0.0\nsamples = 1\nvalue = [0, 2]\nclass = a", fillcolor="#399de5"] ;
479 -> 480 ;
481 [label="gini = 0.0\nsamples = 1\nvalue = [1, 0]\nclass = t", fillcolor="#e58139"] ;
479 -> 481 ;
482 [label="gini = 0.0\nsamples = 1\nvalue = [0, 1]\nclass = a", fillcolor="#399de5"] ;
478 -> 482 ;
483 [label="window_mean <= 1.33\ngini = 0.15\nsamples = 15\nvalue = [2, 22]\nclass = a", fillcolor="#4ba6e7"] ;
413 -> 483 ;
484 [label="weekday_0.16666666666666666 <= 0.5\ngini = 0.24\nsamples = 10\nvalue = [2, 12]\nclass = a", fillcolor="#5aade9"] ;
483 -> 484 ;
485 [label="gini = 0.0\nsamples = 8\nvalue = [0, 12]\nclass = a", fillcolor="#399de5"] ;
484 -> 485 ;
486 [label="gini = 0.0\nsamples = 2\nvalue = [2, 0]\nclass = t", fillcolor="#e58139"] ;
484 -> 486 ;
487 [label="gini = 0.0\nsamples = 5\nvalue = [0, 10]\nclass = a", fillcolor="#399de5"] ;
483 -> 487 ;
488 [label="gini = 0.0\nsamples = 2\nvalue = [4, 0]\nclass = t", fillcolor="#e58139"] ;
412 -> 488 ;
489 [label="window_peak <= 0.33\ngini = 0.33\nsamples = 40\nvalue = [17, 63]\nclass = a", fillcolor="#6eb7ec"] ;
411 -> 489 ;
490 [label="gini = 0.0\nsamples = 1\nvalue = [2, 0]\nclass = t", fillcolor="#e58139"] ;
489 -> 490 ;
491 [label="date_0.7666666666666667 <= 0.5\ngini = 0.31\nsamples = 39\nvalue = [15, 63]\nclass = a", fillcolor="#68b4eb"] ;
489 -> 491 ;
492 [label="window_dev <= 1.32\ngini = 0.34\nsamples = 35\nvalue = [15, 55]\nclass = a", fillcolor="#6fb8ec"] ;
491 -> 492 ;
493 [label="ab_diff <= 1.68\ngini = 0.06\nsamples = 16\nvalue = [1, 33]\nclass = a", fillcolor="#3fa0e6"] ;
492 -> 493 ;
494 [label="re_diff <= 1.88\ngini = 0.14\nsamples = 7\nvalue = [1, 12]\nclass = a", fillcolor="#49a5e7"] ;
493 -> 494 ;
495 [label="gini = 0.0\nsamples = 6\nvalue = [0, 12]\nclass = a", fillcolor="#399de5"] ;
494 -> 495 ;
496 [label="gini = 0.0\nsamples = 1\nvalue = [1, 0]\nclass = t", fillcolor="#e58139"] ;
494 -> 496 ;
497 [label="gini = 0.0\nsamples = 9\nvalue = [0, 21]\nclass = a", fillcolor="#399de5"] ;
493 -> 497 ;
498 [label="date_0.06666666666666668 <= 0.5\ngini = 0.48\nsamples = 19\nvalue = [14, 22]\nclass = a", fillcolor="#b7dbf6"] ;
492 -> 498 ;
499 [label="window_dev <= 1.46\ngini = 0.47\nsamples = 18\nvalue = [13, 22]\nclass = a", fillcolor="#aed7f4"] ;
498 -> 499 ;
500 [label="date_0.6333333333333333 <= 0.5\ngini = 0.47\nsamples = 7\nvalue = [10, 6]\nclass = t", fillcolor="#f5cdb0"] ;
499 -> 500 ;
501 [label="hour_0.5217391304347826 <= 0.5\ngini = 0.5\nsamples = 5\nvalue = [6, 6]\nclass = t", fillcolor="#ffffff"] ;
500 -> 501 ;
502 [label="gini = 0.0\nsamples = 1\nvalue = [3, 0]\nclass = t", fillcolor="#e58139"] ;
501 -> 502 ;
503 [label="total_load <= 0.79\ngini = 0.44\nsamples = 4\nvalue = [3, 6]\nclass = a", fillcolor="#9ccef2"] ;
501 -> 503 ;
504 [label="gini = 0.0\nsamples = 1\nvalue = [3, 0]\nclass = t", fillcolor="#e58139"] ;
503 -> 504 ;
505 [label="gini = 0.0\nsamples = 3\nvalue = [0, 6]\nclass = a", fillcolor="#399de5"] ;
503 -> 505 ;
506 [label="gini = 0.0\nsamples = 2\nvalue = [4, 0]\nclass = t", fillcolor="#e58139"] ;
500 -> 506 ;
507 [label="minute_0.9322033898305084 <= 0.5\ngini = 0.27\nsamples = 11\nvalue = [3, 16]\nclass = a", fillcolor="#5eafea"] ;
499 -> 507 ;
508 [label="hour_0.43478260869565216 <= 0.5\ngini = 0.29\nsamples = 10\nvalue = [3, 14]\nclass = a", fillcolor="#63b2eb"] ;
507 -> 508 ;
509 [label="window_peak <= 0.66\ngini = 0.32\nsamples = 9\nvalue = [3, 12]\nclass = a", fillcolor="#6ab6ec"] ;
508 -> 509 ;
510 [label="gini = 0.0\nsamples = 1\nvalue = [1, 0]\nclass = t", fillcolor="#e58139"] ;
509 -> 510 ;
511 [label="window_peak <= 0.93\ngini = 0.24\nsamples = 8\nvalue = [2, 12]\nclass = a", fillcolor="#5aade9"] ;
509 -> 511 ;
512 [label="gini = 0.0\nsamples = 4\nvalue = [0, 7]\nclass = a", fillcolor="#399de5"] ;
511 -> 512 ;
513 [label="window_dev <= 1.56\ngini = 0.41\nsamples = 4\nvalue = [2, 5]\nclass = a", fillcolor="#88c4ef"] ;
511 -> 513 ;
514 [label="gini = 0.0\nsamples = 3\nvalue = [0, 5]\nclass = a", fillcolor="#399de5"] ;
513 -> 514 ;
515 [label="gini = 0.0\nsamples = 1\nvalue = [2, 0]\nclass = t", fillcolor="#e58139"] ;
513 -> 515 ;
516 [label="gini = 0.0\nsamples = 1\nvalue = [0, 2]\nclass = a", fillcolor="#399de5"] ;
508 -> 516 ;
517 [label="gini = 0.0\nsamples = 1\nvalue = [0, 2]\nclass = a", fillcolor="#399de5"] ;
507 -> 517 ;
518 [label="gini = 0.0\nsamples = 1\nvalue = [1, 0]\nclass = t", fillcolor="#e58139"] ;
498 -> 518 ;
519 [label="gini = 0.0\nsamples = 4\nvalue = [0, 8]\nclass = a", fillcolor="#399de5"] ;
491 -> 519 ;
520 [label="total_load <= 0.63\ngini = 0.48\nsamples = 6\nvalue = [6, 4]\nclass = t", fillcolor="#f6d5bd"] ;
410 -> 520 ;
521 [label="gini = 0.0\nsamples = 3\nvalue = [6, 0]\nclass = t", fillcolor="#e58139"] ;
520 -> 521 ;
522 [label="gini = 0.0\nsamples = 3\nvalue = [0, 4]\nclass = a", fillcolor="#399de5"] ;
520 -> 522 ;
523 [label="minute_0.711864406779661 <= 0.5\ngini = 0.16\nsamples = 29\nvalue = [4, 41]\nclass = a", fillcolor="#4ca7e8"] ;
409 -> 523 ;
524 [label="minute_0.01694915254237288 <= 0.5\ngini = 0.13\nsamples = 27\nvalue = [3, 39]\nclass = a", fillcolor="#48a5e7"] ;
523 -> 524 ;
525 [label="hour_0.7391304347826086 <= 0.5\ngini = 0.14\nsamples = 26\nvalue = [3, 38]\nclass = a", fillcolor="#49a5e7"] ;
524 -> 525 ;
526 [label="hour_0.9130434782608695 <= 0.5\ngini = 0.15\nsamples = 23\nvalue = [3, 34]\nclass = a", fillcolor="#4aa6e7"] ;
525 -> 526 ;
527 [label="minute_0.3898305084745763 <= 0.5\ngini = 0.07\nsamples = 18\nvalue = [1, 27]\nclass = a", fillcolor="#40a1e6"] ;
526 -> 527 ;
528 [label="re_diff <= -1.95\ngini = 0.08\nsamples = 16\nvalue = [1, 24]\nclass = a", fillcolor="#41a1e6"] ;
527 -> 528 ;
529 [label="total_load <= 0.85\ngini = 0.18\nsamples = 6\nvalue = [1, 9]\nclass = a", fillcolor="#4fa8e8"] ;
528 -> 529 ;
530 [label="gini = 0.0\nsamples = 1\nvalue = [1, 0]\nclass = t", fillcolor="#e58139"] ;
529 -> 530 ;
531 [label="gini = 0.0\nsamples = 5\nvalue = [0, 9]\nclass = a", fillcolor="#399de5"] ;
529 -> 531 ;
532 [label="gini = 0.0\nsamples = 10\nvalue = [0, 15]\nclass = a", fillcolor="#399de5"] ;
528 -> 532 ;
533 [label="gini = 0.0\nsamples = 2\nvalue = [0, 3]\nclass = a", fillcolor="#399de5"] ;
527 -> 533 ;
534 [label="minute_0.6440677966101694 <= 0.5\ngini = 0.35\nsamples = 5\nvalue = [2, 7]\nclass = a", fillcolor="#72b9ec"] ;
526 -> 534 ;
535 [label="window_dev <= 1.27\ngini = 0.38\nsamples = 4\nvalue = [2, 6]\nclass = a", fillcolor="#7bbeee"] ;
534 -> 535 ;
536 [label="gini = 0.0\nsamples = 3\nvalue = [0, 6]\nclass = a", fillcolor="#399de5"] ;
535 -> 536 ;
537 [label="gini = 0.0\nsamples = 1\nvalue = [2, 0]\nclass = t", fillcolor="#e58139"] ;
535 -> 537 ;
538 [label="gini = 0.0\nsamples = 1\nvalue = [0, 1]\nclass = a", fillcolor="#399de5"] ;
534 -> 538 ;
539 [label="gini = 0.0\nsamples = 3\nvalue = [0, 4]\nclass = a", fillcolor="#399de5"] ;
525 -> 539 ;
540 [label="gini = 0.0\nsamples = 1\nvalue = [0, 1]\nclass = a", fillcolor="#399de5"] ;
524 -> 540 ;
541 [label="hour_0.9130434782608695 <= 0.5\ngini = 0.44\nsamples = 2\nvalue = [1, 2]\nclass = a", fillcolor="#9ccef2"] ;
523 -> 541 ;
542 [label="gini = 0.0\nsamples = 1\nvalue = [0, 2]\nclass = a", fillcolor="#399de5"] ;
541 -> 542 ;
543 [label="gini = 0.0\nsamples = 1\nvalue = [1, 0]\nclass = t", fillcolor="#e58139"] ;
541 -> 543 ;
544 [label="minute_0.6949152542372882 <= 0.5\ngini = 0.13\nsamples = 17\nvalue = [2, 26]\nclass = a", fillcolor="#48a5e7"] ;
408 -> 544 ;
545 [label="weekday_0.3333333333333333 <= 0.5\ngini = 0.14\nsamples = 16\nvalue = [2, 24]\nclass = a", fillcolor="#49a5e7"] ;
544 -> 545 ;
546 [label="ab_diff <= 1.71\ngini = 0.28\nsamples = 5\nvalue = [2, 10]\nclass = a", fillcolor="#61b1ea"] ;
545 -> 546 ;
547 [label="gini = 0.0\nsamples = 1\nvalue = [2, 0]\nclass = t", fillcolor="#e58139"] ;
546 -> 547 ;
548 [label="gini = 0.0\nsamples = 4\nvalue = [0, 10]\nclass = a", fillcolor="#399de5"] ;
546 -> 548 ;
549 [label="gini = 0.0\nsamples = 11\nvalue = [0, 14]\nclass = a", fillcolor="#399de5"] ;
545 -> 549 ;
550 [label="gini = 0.0\nsamples = 1\nvalue = [0, 2]\nclass = a", fillcolor="#399de5"] ;
544 -> 550 ;
551 [label="minute_1.0 <= 0.5\ngini = 0.36\nsamples = 42\nvalue = [50, 15]\nclass = t", fillcolor="#eda774"] ;
401 -> 551 ;
552 [label="minute_0.4067796610169492 <= 0.5\ngini = 0.32\nsamples = 39\nvalue = [49, 12]\nclass = t", fillcolor="#eba069"] ;
551 -> 552 ;
553 [label="minute_0.0 <= 0.5\ngini = 0.3\nsamples = 38\nvalue = [49, 11]\nclass = t", fillcolor="#eb9d65"] ;
552 -> 553 ;
554 [label="date_0.16666666666666669 <= 0.5\ngini = 0.26\nsamples = 37\nvalue = [49, 9]\nclass = t", fillcolor="#ea985d"] ;
553 -> 554 ;
555 [label="re_diff <= 3.05\ngini = 0.27\nsamples = 35\nvalue = [46, 9]\nclass = t", fillcolor="#ea9a60"] ;
554 -> 555 ;
556 [label="date_0.5333333333333333 <= 0.5\ngini = 0.2\nsamples = 33\nvalue = [46, 6]\nclass = t", fillcolor="#e89153"] ;
555 -> 556 ;
557 [label="minute_0.1016949152542373 <= 0.5\ngini = 0.15\nsamples = 31\nvalue = [46, 4]\nclass = t", fillcolor="#e78c4a"] ;
556 -> 557 ;
558 [label="re_diff <= -2.26\ngini = 0.11\nsamples = 30\nvalue = [46, 3]\nclass = t", fillcolor="#e78946"] ;
557 -> 558 ;
559 [label="total_load <= 1.45\ngini = 0.24\nsamples = 15\nvalue = [19, 3]\nclass = t", fillcolor="#e99558"] ;
558 -> 559 ;
560 [label="date_0.43333333333333335 <= 0.5\ngini = 0.09\nsamples = 13\nvalue = [19, 1]\nclass = t", fillcolor="#e68843"] ;
559 -> 560 ;
561 [label="window_peak <= 0.84\ngini = 0.1\nsamples = 12\nvalue = [17, 1]\nclass = t", fillcolor="#e78845"] ;
560 -> 561 ;
562 [label="gini = 0.0\nsamples = 1\nvalue = [0, 1]\nclass = a", fillcolor="#399de5"] ;
561 -> 562 ;
563 [label="gini = 0.0\nsamples = 11\nvalue = [17, 0]\nclass = t", fillcolor="#e58139"] ;
561 -> 563 ;
564 [label="gini = 0.0\nsamples = 1\nvalue = [2, 0]\nclass = t", fillcolor="#e58139"] ;
560 -> 564 ;
565 [label="gini = 0.0\nsamples = 2\nvalue = [0, 2]\nclass = a", fillcolor="#399de5"] ;
559 -> 565 ;
566 [label="gini = 0.0\nsamples = 15\nvalue = [27, 0]\nclass = t", fillcolor="#e58139"] ;
558 -> 566 ;
567 [label="gini = 0.0\nsamples = 1\nvalue = [0, 1]\nclass = a", fillcolor="#399de5"] ;
557 -> 567 ;
568 [label="gini = 0.0\nsamples = 2\nvalue = [0, 2]\nclass = a", fillcolor="#399de5"] ;
556 -> 568 ;
569 [label="gini = 0.0\nsamples = 2\nvalue = [0, 3]\nclass = a", fillcolor="#399de5"] ;
555 -> 569 ;
570 [label="gini = 0.0\nsamples = 2\nvalue = [3, 0]\nclass = t", fillcolor="#e58139"] ;
554 -> 570 ;
571 [label="gini = 0.0\nsamples = 1\nvalue = [0, 2]\nclass = a", fillcolor="#399de5"] ;
553 -> 571 ;
572 [label="gini = 0.0\nsamples = 1\nvalue = [0, 1]\nclass = a", fillcolor="#399de5"] ;
552 -> 572 ;
573 [label="hour_0.6521739130434783 <= 0.5\ngini = 0.38\nsamples = 3\nvalue = [1, 3]\nclass = a", fillcolor="#7bbeee"] ;
551 -> 573 ;
574 [label="gini = 0.0\nsamples = 2\nvalue = [0, 3]\nclass = a", fillcolor="#399de5"] ;
573 -> 574 ;
575 [label="gini = 0.0\nsamples = 1\nvalue = [1, 0]\nclass = t", fillcolor="#e58139"] ;
573 -> 575 ;
576 [label="window_dev <= 1.55\ngini = 0.33\nsamples = 21\nvalue = [7, 26]\nclass = a", fillcolor="#6eb7ec"] ;
400 -> 576 ;
577 [label="minute_0.15254237288135594 <= 0.5\ngini = 0.19\nsamples = 18\nvalue = [3, 26]\nclass = a", fillcolor="#50a8e8"] ;
576 -> 577 ;
578 [label="total_load <= 0.75\ngini = 0.07\nsamples = 17\nvalue = [1, 26]\nclass = a", fillcolor="#41a1e6"] ;
577 -> 578 ;
579 [label="gini = 0.0\nsamples = 1\nvalue = [1, 0]\nclass = t", fillcolor="#e58139"] ;
578 -> 579 ;
580 [label="gini = 0.0\nsamples = 16\nvalue = [0, 26]\nclass = a", fillcolor="#399de5"] ;
578 -> 580 ;
581 [label="gini = 0.0\nsamples = 1\nvalue = [2, 0]\nclass = t", fillcolor="#e58139"] ;
577 -> 581 ;
582 [label="gini = 0.0\nsamples = 3\nvalue = [4, 0]\nclass = t", fillcolor="#e58139"] ;
576 -> 582 ;
583 [label="date_0.6 <= 0.5\ngini = 0.48\nsamples = 168\nvalue = [168, 108]\nclass = t", fillcolor="#f6d2b8"] ;
399 -> 583 ;
584 [label="total_load <= 0.77\ngini = 0.48\nsamples = 161\nvalue = [155, 108]\nclass = t", fillcolor="#f7d9c3"] ;
583 -> 584 ;
585 [label="gini = 0.0\nsamples = 46\nvalue = [70, 0]\nclass = t", fillcolor="#e58139"] ;
584 -> 585 ;
586 [label="re_diff <= -3.49\ngini = 0.49\nsamples = 115\nvalue = [85, 108]\nclass = a", fillcolor="#d5eaf9"] ;
584 -> 586 ;
587 [label="gini = 0.0\nsamples = 9\nvalue = [0, 18]\nclass = a", fillcolor="#399de5"] ;
586 -> 587 ;
588 [label="minute_0.2033898305084746 <= 0.5\ngini = 0.5\nsamples = 106\nvalue = [85, 90]\nclass = a", fillcolor="#f4fafe"] ;
586 -> 588 ;
589 [label="window_mean <= 2.11\ngini = 0.5\nsamples = 102\nvalue = [85, 82]\nclass = t", fillcolor="#fefbf8"] ;
588 -> 589 ;
590 [label="minute_0.11864406779661017 <= 0.5\ngini = 0.43\nsamples = 41\nvalue = [19, 41]\nclass = a", fillcolor="#95caf1"] ;
589 -> 590 ;
591 [label="minute_0.01694915254237288 <= 0.5\ngini = 0.41\nsamples = 40\nvalue = [17, 41]\nclass = a", fillcolor="#8bc6f0"] ;
590 -> 591 ;
592 [label="date_0.3 <= 0.5\ngini = 0.39\nsamples = 39\nvalue = [15, 41]\nclass = a", fillcolor="#81c1ef"] ;
591 -> 592 ;
593 [label="hour_0.34782608695652173 <= 0.5\ngini = 0.4\nsamples = 37\nvalue = [15, 39]\nclass = a", fillcolor="#85c3ef"] ;
592 -> 593 ;
594 [label="total_load <= 1.46\ngini = 0.38\nsamples = 36\nvalue = [13, 39]\nclass = a", fillcolor="#7bbeee"] ;
593 -> 594 ;
595 [label="hour_0.5217391304347826 <= 0.5\ngini = 0.5\nsamples = 19\nvalue = [12, 14]\nclass = a", fillcolor="#e3f1fb"] ;
594 -> 595 ;
596 [label="weekday_0.0 <= 0.5\ngini = 0.5\nsamples = 18\nvalue = [12, 11]\nclass = t", fillcolor="#fdf5ef"] ;
595 -> 596 ;
597 [label="date_0.7 <= 0.5\ngini = 0.5\nsamples = 16\nvalue = [9, 11]\nclass = a", fillcolor="#dbedfa"] ;
596 -> 597 ;
598 [label="window_peak <= 0.89\ngini = 0.46\nsamples = 14\nvalue = [6, 11]\nclass = a", fillcolor="#a5d2f3"] ;
597 -> 598 ;
599 [label="gini = 0.0\nsamples = 3\nvalue = [4, 0]\nclass = t", fillcolor="#e58139"] ;
598 -> 599 ;
600 [label="minute_0.5084745762711864 <= 0.5\ngini = 0.26\nsamples = 11\nvalue = [2, 11]\nclass = a", fillcolor="#5dafea"] ;
598 -> 600 ;
601 [label="minute_0.5423728813559322 <= 0.5\ngini = 0.32\nsamples = 9\nvalue = [2, 8]\nclass = a", fillcolor="#6ab6ec"] ;
600 -> 601 ;
602 [label="date_0.13333333333333333 <= 0.5\ngini = 0.35\nsamples = 8\nvalue = [2, 7]\nclass = a", fillcolor="#72b9ec"] ;
601 -> 602 ;
603 [label="date_0.06666666666666668 <= 0.5\ngini = 0.24\nsamples = 6\nvalue = [1, 6]\nclass = a", fillcolor="#5aade9"] ;
602 -> 603 ;
604 [label="date_0.3333333333333333 <= 0.5\ngini = 0.28\nsamples = 5\nvalue = [1, 5]\nclass = a", fillcolor="#61b1ea"] ;
603 -> 604 ;
605 [label="ab_diff <= 3.17\ngini = 0.38\nsamples = 3\nvalue = [1, 3]\nclass = a", fillcolor="#7bbeee"] ;
604 -> 605 ;
606 [label="gini = 0.0\nsamples = 2\nvalue = [0, 3]\nclass = a", fillcolor="#399de5"] ;
605 -> 606 ;
607 [label="gini = 0.0\nsamples = 1\nvalue = [1, 0]\nclass = t", fillcolor="#e58139"] ;
605 -> 607 ;
608 [label="gini = 0.0\nsamples = 2\nvalue = [0, 2]\nclass = a", fillcolor="#399de5"] ;
604 -> 608 ;
609 [label="gini = 0.0\nsamples = 1\nvalue = [0, 1]\nclass = a", fillcolor="#399de5"] ;
603 -> 609 ;
610 [label="re_diff <= 2.3\ngini = 0.5\nsamples = 2\nvalue = [1, 1]\nclass = t", fillcolor="#ffffff"] ;
602 -> 610 ;
611 [label="gini = 0.0\nsamples = 1\nvalue = [0, 1]\nclass = a", fillcolor="#399de5"] ;
610 -> 611 ;
612 [label="gini = 0.0\nsamples = 1\nvalue = [1, 0]\nclass = t", fillcolor="#e58139"] ;
610 -> 612 ;
613 [label="gini = 0.0\nsamples = 1\nvalue = [0, 1]\nclass = a", fillcolor="#399de5"] ;
601 -> 613 ;
614 [label="gini = 0.0\nsamples = 2\nvalue = [0, 3]\nclass = a", fillcolor="#399de5"] ;
600 -> 614 ;
615 [label="gini = 0.0\nsamples = 2\nvalue = [3, 0]\nclass = t", fillcolor="#e58139"] ;
597 -> 615 ;
616 [label="gini = 0.0\nsamples = 2\nvalue = [3, 0]\nclass = t", fillcolor="#e58139"] ;
596 -> 616 ;
617 [label="gini = 0.0\nsamples = 1\nvalue = [0, 3]\nclass = a", fillcolor="#399de5"] ;
595 -> 617 ;
618 [label="re_diff <= -0.45\ngini = 0.07\nsamples = 17\nvalue = [1, 25]\nclass = a", fillcolor="#41a1e6"] ;
594 -> 618 ;
619 [label="gini = 0.0\nsamples = 13\nvalue = [0, 19]\nclass = a", fillcolor="#399de5"] ;
618 -> 619 ;
620 [label="window_mean <= 1.96\ngini = 0.24\nsamples = 4\nvalue = [1, 6]\nclass = a", fillcolor="#5aade9"] ;
618 -> 620 ;
621 [label="gini = 0.0\nsamples = 1\nvalue = [1, 0]\nclass = t", fillcolor="#e58139"] ;
620 -> 621 ;
622 [label="gini = 0.0\nsamples = 3\nvalue = [0, 6]\nclass = a", fillcolor="#399de5"] ;
620 -> 622 ;
623 [label="gini = 0.0\nsamples = 1\nvalue = [2, 0]\nclass = t", fillcolor="#e58139"] ;
593 -> 623 ;
624 [label="gini = 0.0\nsamples = 2\nvalue = [0, 2]\nclass = a", fillcolor="#399de5"] ;
592 -> 624 ;
625 [label="gini = 0.0\nsamples = 1\nvalue = [2, 0]\nclass = t", fillcolor="#e58139"] ;
591 -> 625 ;
626 [label="gini = 0.0\nsamples = 1\nvalue = [2, 0]\nclass = t", fillcolor="#e58139"] ;
590 -> 626 ;
627 [label="window_dev <= 2.08\ngini = 0.47\nsamples = 61\nvalue = [66, 41]\nclass = t", fillcolor="#f5cfb4"] ;
589 -> 627 ;
628 [label="total_load <= 1.82\ngini = 0.33\nsamples = 24\nvalue = [35, 9]\nclass = t", fillcolor="#eca16c"] ;
627 -> 628 ;
629 [label="total_load <= 0.92\ngini = 0.19\nsamples = 20\nvalue = [33, 4]\nclass = t", fillcolor="#e89051"] ;
628 -> 629 ;
630 [label="gini = 0.0\nsamples = 1\nvalue = [0, 1]\nclass = a", fillcolor="#399de5"] ;
629 -> 630 ;
631 [label="date_0.9 <= 0.5\ngini = 0.15\nsamples = 19\nvalue = [33, 3]\nclass = t", fillcolor="#e78c4b"] ;
629 -> 631 ;
632 [label="re_diff <= -1.53\ngini = 0.11\nsamples = 18\nvalue = [33, 2]\nclass = t", fillcolor="#e78945"] ;
631 -> 632 ;
633 [label="gini = 0.0\nsamples = 9\nvalue = [19, 0]\nclass = t", fillcolor="#e58139"] ;
632 -> 633 ;
634 [label="date_0.06666666666666668 <= 0.5\ngini = 0.22\nsamples = 9\nvalue = [14, 2]\nclass = t", fillcolor="#e99355"] ;
632 -> 634 ;
635 [label="gini = 0.0\nsamples = 8\nvalue = [14, 0]\nclass = t", fillcolor="#e58139"] ;
634 -> 635 ;
636 [label="gini = 0.0\nsamples = 1\nvalue = [0, 2]\nclass = a", fillcolor="#399de5"] ;
634 -> 636 ;
637 [label="gini = 0.0\nsamples = 1\nvalue = [0, 1]\nclass = a", fillcolor="#399de5"] ;
631 -> 637 ;
638 [label="window_mean <= 2.3\ngini = 0.41\nsamples = 4\nvalue = [2, 5]\nclass = a", fillcolor="#88c4ef"] ;
628 -> 638 ;
639 [label="gini = 0.0\nsamples = 2\nvalue = [0, 3]\nclass = a", fillcolor="#399de5"] ;
638 -> 639 ;
640 [label="date_0.9999999999999999 <= 0.5\ngini = 0.5\nsamples = 2\nvalue = [2, 2]\nclass = t", fillcolor="#ffffff"] ;
638 -> 640 ;
641 [label="gini = 0.0\nsamples = 1\nvalue = [0, 2]\nclass = a", fillcolor="#399de5"] ;
640 -> 641 ;
642 [label="gini = 0.0\nsamples = 1\nvalue = [2, 0]\nclass = t", fillcolor="#e58139"] ;
640 -> 642 ;
643 [label="weekday_0.8333333333333333 <= 0.5\ngini = 0.5\nsamples = 37\nvalue = [31, 32]\nclass = a", fillcolor="#f9fcfe"] ;
627 -> 643 ;
644 [label="window_dev <= 3.57\ngini = 0.49\nsamples = 32\nvalue = [25, 31]\nclass = a", fillcolor="#d9ecfa"] ;
643 -> 644 ;
645 [label="total_load <= 2.3\ngini = 0.47\nsamples = 27\nvalue = [18, 30]\nclass = a", fillcolor="#b0d8f5"] ;
644 -> 645 ;
646 [label="weekday_0.6666666666666666 <= 0.5\ngini = 0.42\nsamples = 24\nvalue = [13, 30]\nclass = a", fillcolor="#8fc7f0"] ;
645 -> 646 ;
647 [label="date_0.2 <= 0.5\ngini = 0.39\nsamples = 21\nvalue = [10, 28]\nclass = a", fillcolor="#80c0ee"] ;
646 -> 647 ;
648 [label="weekday_0.16666666666666666 <= 0.5\ngini = 0.35\nsamples = 20\nvalue = [8, 28]\nclass = a", fillcolor="#72b9ec"] ;
647 -> 648 ;
649 [label="weekday_0.5 <= 0.5\ngini = 0.41\nsamples = 12\nvalue = [7, 17]\nclass = a", fillcolor="#8bc5f0"] ;
648 -> 649 ;
650 [label="weekday_0.3333333333333333 <= 0.5\ngini = 0.12\nsamples = 8\nvalue = [1, 14]\nclass = a", fillcolor="#47a4e7"] ;
649 -> 650 ;
651 [label="gini = 0.0\nsamples = 3\nvalue = [0, 4]\nclass = a", fillcolor="#399de5"] ;
650 -> 651 ;
652 [label="minute_0.01694915254237288 <= 0.5\ngini = 0.17\nsamples = 5\nvalue = [1, 10]\nclass = a", fillcolor="#4da7e8"] ;
650 -> 652 ;
653 [label="window_mean <= 2.84\ngini = 0.32\nsamples = 3\nvalue = [1, 4]\nclass = a", fillcolor="#6ab6ec"] ;
652 -> 653 ;
654 [label="gini = 0.0\nsamples = 2\nvalue = [0, 4]\nclass = a", fillcolor="#399de5"] ;
653 -> 654 ;
655 [label="gini = 0.0\nsamples = 1\nvalue = [1, 0]\nclass = t", fillcolor="#e58139"] ;
653 -> 655 ;
656 [label="gini = 0.0\nsamples = 2\nvalue = [0, 6]\nclass = a", fillcolor="#399de5"] ;
652 -> 656 ;
657 [label="minute_0.03389830508474576 <= 0.5\ngini = 0.44\nsamples = 4\nvalue = [6, 3]\nclass = t", fillcolor="#f2c09c"] ;
649 -> 657 ;
658 [label="date_0.8333333333333334 <= 0.5\ngini = 0.49\nsamples = 3\nvalue = [4, 3]\nclass = t", fillcolor="#f8e0ce"] ;
657 -> 658 ;
659 [label="ab_diff <= 2.73\ngini = 0.38\nsamples = 2\nvalue = [1, 3]\nclass = a", fillcolor="#7bbeee"] ;
658 -> 659 ;
660 [label="gini = 0.0\nsamples = 1\nvalue = [0, 3]\nclass = a", fillcolor="#399de5"] ;
659 -> 660 ;
661 [label="gini = 0.0\nsamples = 1\nvalue = [1, 0]\nclass = t", fillcolor="#e58139"] ;
659 -> 661 ;
662 [label="gini = 0.0\nsamples = 1\nvalue = [3, 0]\nclass = t", fillcolor="#e58139"] ;
658 -> 662 ;
663 [label="gini = 0.0\nsamples = 1\nvalue = [2, 0]\nclass = t", fillcolor="#e58139"] ;
657 -> 663 ;
664 [label="date_0.3666666666666667 <= 0.5\ngini = 0.15\nsamples = 8\nvalue = [1, 11]\nclass = a", fillcolor="#4ba6e7"] ;
648 -> 664 ;
665 [label="gini = 0.0\nsamples = 5\nvalue = [0, 8]\nclass = a", fillcolor="#399de5"] ;
664 -> 665 ;
666 [label="minute_0.05084745762711865 <= 0.5\ngini = 0.38\nsamples = 3\nvalue = [1, 3]\nclass = a", fillcolor="#7bbeee"] ;
664 -> 666 ;
667 [label="re_diff <= -0.61\ngini = 0.5\nsamples = 2\nvalue = [1, 1]\nclass = t", fillcolor="#ffffff"] ;
666 -> 667 ;
668 [label="gini = 0.0\nsamples = 1\nvalue = [0, 1]\nclass = a", fillcolor="#399de5"] ;
667 -> 668 ;
669 [label="gini = 0.0\nsamples = 1\nvalue = [1, 0]\nclass = t", fillcolor="#e58139"] ;
667 -> 669 ;
670 [label="gini = 0.0\nsamples = 1\nvalue = [0, 2]\nclass = a", fillcolor="#399de5"] ;
666 -> 670 ;
671 [label="gini = 0.0\nsamples = 1\nvalue = [2, 0]\nclass = t", fillcolor="#e58139"] ;
647 -> 671 ;
672 [label="ab_diff <= 2.82\ngini = 0.48\nsamples = 3\nvalue = [3, 2]\nclass = t", fillcolor="#f6d5bd"] ;
646 -> 672 ;
673 [label="gini = 0.0\nsamples = 1\nvalue = [0, 2]\nclass = a", fillcolor="#399de5"] ;
672 -> 673 ;
674 [label="gini = 0.0\nsamples = 2\nvalue = [3, 0]\nclass = t", fillcolor="#e58139"] ;
672 -> 674 ;
675 [label="gini = 0.0\nsamples = 3\nvalue = [5, 0]\nclass = t", fillcolor="#e58139"] ;
645 -> 675 ;
676 [label="weekday_0.16666666666666666 <= 0.5\ngini = 0.22\nsamples = 5\nvalue = [7, 1]\nclass = t", fillcolor="#e99355"] ;
644 -> 676 ;
677 [label="window_mean <= 2.34\ngini = 0.24\nsamples = 4\nvalue = [6, 1]\nclass = t", fillcolor="#e9965a"] ;
676 -> 677 ;
678 [label="gini = 0.0\nsamples = 1\nvalue = [0, 1]\nclass = a", fillcolor="#399de5"] ;
677 -> 678 ;
679 [label="gini = 0.0\nsamples = 3\nvalue = [6, 0]\nclass = t", fillcolor="#e58139"] ;
677 -> 679 ;
680 [label="gini = 0.0\nsamples = 1\nvalue = [1, 0]\nclass = t", fillcolor="#e58139"] ;
676 -> 680 ;
681 [label="hour_0.6521739130434783 <= 0.5\ngini = 0.24\nsamples = 5\nvalue = [6, 1]\nclass = t", fillcolor="#e9965a"] ;
643 -> 681 ;
682 [label="gini = 0.0\nsamples = 4\nvalue = [6, 0]\nclass = t", fillcolor="#e58139"] ;
681 -> 682 ;
683 [label="gini = 0.0\nsamples = 1\nvalue = [0, 1]\nclass = a", fillcolor="#399de5"] ;
681 -> 683 ;
684 [label="gini = 0.0\nsamples = 4\nvalue = [0, 8]\nclass = a", fillcolor="#399de5"] ;
588 -> 684 ;
685 [label="gini = 0.0\nsamples = 7\nvalue = [13, 0]\nclass = t", fillcolor="#e58139"] ;
583 -> 685 ;
686 [label="hour_0.43478260869565216 <= 0.5\ngini = 0.23\nsamples = 385\nvalue = [79, 531]\nclass = a", fillcolor="#56ace9"] ;
398 -> 686 ;
687 [label="hour_0.8695652173913043 <= 0.5\ngini = 0.22\nsamples = 381\nvalue = [75, 529]\nclass = a", fillcolor="#55abe9"] ;
686 -> 687 ;
688 [label="weekday_0.8333333333333333 <= 0.5\ngini = 0.23\nsamples = 356\nvalue = [75, 493]\nclass = a", fillcolor="#57ace9"] ;
687 -> 688 ;
689 [label="date_0.7666666666666667 <= 0.5\ngini = 0.28\nsamples = 276\nvalue = [74, 364]\nclass = a", fillcolor="#61b1ea"] ;
688 -> 689 ;
690 [label="date_0.6 <= 0.5\ngini = 0.23\nsamples = 262\nvalue = [55, 358]\nclass = a", fillcolor="#57ace9"] ;
689 -> 690 ;
691 [label="date_0.9 <= 0.5\ngini = 0.17\nsamples = 251\nvalue = [38, 358]\nclass = a", fillcolor="#4ea7e8"] ;
690 -> 691 ;
692 [label="re_diff <= 2.66\ngini = 0.18\nsamples = 239\nvalue = [38, 340]\nclass = a", fillcolor="#4fa8e8"] ;
691 -> 692 ;
693 [label="date_0.3333333333333333 <= 0.5\ngini = 0.14\nsamples = 234\nvalue = [29, 340]\nclass = a", fillcolor="#4aa5e7"] ;
692 -> 693 ;
694 [label="weekday_0.6666666666666666 <= 0.5\ngini = 0.08\nsamples = 173\nvalue = [11, 262]\nclass = a", fillcolor="#41a1e6"] ;
693 -> 694 ;
695 [label="ab_diff <= -0.49\ngini = 0.07\nsamples = 171\nvalue = [10, 261]\nclass = a", fillcolor="#41a1e6"] ;
694 -> 695 ;
696 [label="window_mean <= 1.17\ngini = 0.01\nsamples = 84\nvalue = [1, 137]\nclass = a", fillcolor="#3a9ee5"] ;
695 -> 696 ;
697 [label="window_peak <= 1.46\ngini = 0.2\nsamples = 6\nvalue = [1, 8]\nclass = a", fillcolor="#52a9e8"] ;
696 -> 697 ;
698 [label="gini = 0.0\nsamples = 5\nvalue = [0, 8]\nclass = a", fillcolor="#399de5"] ;
697 -> 698 ;
699 [label="gini = 0.0\nsamples = 1\nvalue = [1, 0]\nclass = t", fillcolor="#e58139"] ;
697 -> 699 ;
700 [label="gini = 0.0\nsamples = 78\nvalue = [0, 129]\nclass = a", fillcolor="#399de5"] ;
696 -> 700 ;
701 [label="minute_0.9322033898305084 <= 0.5\ngini = 0.13\nsamples = 87\nvalue = [9, 124]\nclass = a", fillcolor="#47a4e7"] ;
695 -> 701 ;
702 [label="re_diff <= 0.0\ngini = 0.09\nsamples = 85\nvalue = [6, 123]\nclass = a", fillcolor="#43a2e6"] ;
701 -> 702 ;
703 [label="window_mean <= 2.03\ngini = 0.36\nsamples = 18\nvalue = [6, 19]\nclass = a", fillcolor="#78bced"] ;
702 -> 703 ;
704 [label="weekday_0.5 <= 0.5\ngini = 0.19\nsamples = 14\nvalue = [2, 17]\nclass = a", fillcolor="#50a9e8"] ;
703 -> 704 ;
705 [label="window_peak <= 1.46\ngini = 0.2\nsamples = 13\nvalue = [2, 16]\nclass = a", fillcolor="#52a9e8"] ;
704 -> 705 ;
706 [label="gini = 0.0\nsamples = 10\nvalue = [0, 15]\nclass = a", fillcolor="#399de5"] ;
705 -> 706 ;
707 [label="ab_diff <= -0.36\ngini = 0.44\nsamples = 3\nvalue = [2, 1]\nclass = t", fillcolor="#f2c09c"] ;
705 -> 707 ;
708 [label="gini = 0.0\nsamples = 2\nvalue = [2, 0]\nclass = t", fillcolor="#e58139"] ;
707 -> 708 ;
709 [label="gini = 0.0\nsamples = 1\nvalue = [0, 1]\nclass = a", fillcolor="#399de5"] ;
707 -> 709 ;
710 [label="gini = 0.0\nsamples = 1\nvalue = [0, 1]\nclass = a", fillcolor="#399de5"] ;
704 -> 710 ;
711 [label="ab_diff <= 0.27\ngini = 0.44\nsamples = 4\nvalue = [4, 2]\nclass = t", fillcolor="#f2c09c"] ;
703 -> 711 ;
712 [label="gini = 0.0\nsamples = 1\nvalue = [0, 1]\nclass = a", fillcolor="#399de5"] ;
711 -> 712 ;
713 [label="ab_diff <= 0.79\ngini = 0.32\nsamples = 3\nvalue = [4, 1]\nclass = t", fillcolor="#eca06a"] ;
711 -> 713 ;
714 [label="gini = 0.0\nsamples = 2\nvalue = [4, 0]\nclass = t", fillcolor="#e58139"] ;
713 -> 714 ;
715 [label="gini = 0.0\nsamples = 1\nvalue = [0, 1]\nclass = a", fillcolor="#399de5"] ;
713 -> 715 ;
716 [label="gini = 0.0\nsamples = 67\nvalue = [0, 104]\nclass = a", fillcolor="#399de5"] ;
702 -> 716 ;
717 [label="total_load <= 0.69\ngini = 0.38\nsamples = 2\nvalue = [3, 1]\nclass = t", fillcolor="#eeab7b"] ;
701 -> 717 ;
718 [label="gini = 0.0\nsamples = 1\nvalue = [3, 0]\nclass = t", fillcolor="#e58139"] ;
717 -> 718 ;
719 [label="gini = 0.0\nsamples = 1\nvalue = [0, 1]\nclass = a", fillcolor="#399de5"] ;
717 -> 719 ;
720 [label="window_peak <= 1.61\ngini = 0.5\nsamples = 2\nvalue = [1, 1]\nclass = t", fillcolor="#ffffff"] ;
694 -> 720 ;
721 [label="gini = 0.0\nsamples = 1\nvalue = [0, 1]\nclass = a", fillcolor="#399de5"] ;
720 -> 721 ;
722 [label="gini = 0.0\nsamples = 1\nvalue = [1, 0]\nclass = t", fillcolor="#e58139"] ;
720 -> 722 ;
723 [label="re_diff <= -0.01\ngini = 0.3\nsamples = 61\nvalue = [18, 78]\nclass = a", fillcolor="#67b4eb"] ;
693 -> 723 ;
724 [label="gini = 0.0\nsamples = 12\nvalue = [18, 0]\nclass = t", fillcolor="#e58139"] ;
723 -> 724 ;
725 [label="gini = 0.0\nsamples = 49\nvalue = [0, 78]\nclass = a", fillcolor="#399de5"] ;
723 -> 725 ;
726 [label="gini = 0.0\nsamples = 5\nvalue = [9, 0]\nclass = t", fillcolor="#e58139"] ;
692 -> 726 ;
727 [label="gini = 0.0\nsamples = 12\nvalue = [0, 18]\nclass = a", fillcolor="#399de5"] ;
691 -> 727 ;
728 [label="gini = 0.0\nsamples = 11\nvalue = [17, 0]\nclass = t", fillcolor="#e58139"] ;
690 -> 728 ;
729 [label="weekday_0.3333333333333333 <= 0.5\ngini = 0.36\nsamples = 14\nvalue = [19, 6]\nclass = t", fillcolor="#eda978"] ;
689 -> 729 ;
730 [label="minute_0.8983050847457628 <= 0.5\ngini = 0.17\nsamples = 12\nvalue = [19, 2]\nclass = t", fillcolor="#e88e4e"] ;
729 -> 730 ;
731 [label="hour_0.8260869565217391 <= 0.5\ngini = 0.18\nsamples = 11\nvalue = [18, 2]\nclass = t", fillcolor="#e88f4f"] ;
730 -> 731 ;
732 [label="hour_0.6956521739130435 <= 0.5\ngini = 0.22\nsamples = 9\nvalue = [14, 2]\nclass = t", fillcolor="#e99355"] ;
731 -> 732 ;
733 [label="gini = 0.0\nsamples = 7\nvalue = [14, 0]\nclass = t", fillcolor="#e58139"] ;
732 -> 733 ;
734 [label="gini = 0.0\nsamples = 2\nvalue = [0, 2]\nclass = a", fillcolor="#399de5"] ;
732 -> 734 ;
735 [label="gini = 0.0\nsamples = 2\nvalue = [4, 0]\nclass = t", fillcolor="#e58139"] ;
731 -> 735 ;
736 [label="gini = 0.0\nsamples = 1\nvalue = [1, 0]\nclass = t", fillcolor="#e58139"] ;
730 -> 736 ;
737 [label="gini = 0.0\nsamples = 2\nvalue = [0, 4]\nclass = a", fillcolor="#399de5"] ;
729 -> 737 ;
738 [label="minute_0.6271186440677966 <= 0.5\ngini = 0.02\nsamples = 80\nvalue = [1, 129]\nclass = a", fillcolor="#3b9ee5"] ;
688 -> 738 ;
739 [label="minute_0.9830508474576272 <= 0.5\ngini = 0.02\nsamples = 79\nvalue = [1, 126]\nclass = a", fillcolor="#3b9ee5"] ;
738 -> 739 ;
740 [label="minute_0.559322033898305 <= 0.5\ngini = 0.02\nsamples = 77\nvalue = [1, 121]\nclass = a", fillcolor="#3b9ee5"] ;
739 -> 740 ;
741 [label="date_0.4 <= 0.5\ngini = 0.02\nsamples = 75\nvalue = [1, 118]\nclass = a", fillcolor="#3b9ee5"] ;
740 -> 741 ;
742 [label="total_load <= 0.74\ngini = 0.03\nsamples = 48\nvalue = [1, 71]\nclass = a", fillcolor="#3c9ee5"] ;
741 -> 742 ;
743 [label="gini = 0.0\nsamples = 1\nvalue = [1, 0]\nclass = t", fillcolor="#e58139"] ;
742 -> 743 ;
744 [label="gini = 0.0\nsamples = 47\nvalue = [0, 71]\nclass = a", fillcolor="#399de5"] ;
742 -> 744 ;
745 [label="gini = 0.0\nsamples = 27\nvalue = [0, 47]\nclass = a", fillcolor="#399de5"] ;
741 -> 745 ;
746 [label="gini = 0.0\nsamples = 2\nvalue = [0, 3]\nclass = a", fillcolor="#399de5"] ;
740 -> 746 ;
747 [label="gini = 0.0\nsamples = 2\nvalue = [0, 5]\nclass = a", fillcolor="#399de5"] ;
739 -> 747 ;
748 [label="gini = 0.0\nsamples = 1\nvalue = [0, 3]\nclass = a", fillcolor="#399de5"] ;
738 -> 748 ;
749 [label="gini = 0.0\nsamples = 25\nvalue = [0, 36]\nclass = a", fillcolor="#399de5"] ;
687 -> 749 ;
750 [label="total_load <= 1.47\ngini = 0.44\nsamples = 4\nvalue = [4, 2]\nclass = t", fillcolor="#f2c09c"] ;
686 -> 750 ;
751 [label="gini = 0.0\nsamples = 3\nvalue = [4, 0]\nclass = t", fillcolor="#e58139"] ;
750 -> 751 ;
752 [label="gini = 0.0\nsamples = 1\nvalue = [0, 2]\nclass = a", fillcolor="#399de5"] ;
750 -> 752 ;
753 [label="hour_0.8695652173913043 <= 0.5\ngini = 0.49\nsamples = 88\nvalue = [62, 86]\nclass = a", fillcolor="#c8e4f8"] ;
297 -> 753 ;
754 [label="window_crossing_point <= -1.57\ngini = 0.5\nsamples = 80\nvalue = [62, 72]\nclass = a", fillcolor="#e4f1fb"] ;
753 -> 754 ;
755 [label="minute_0.13559322033898305 <= 0.5\ngini = 0.36\nsamples = 30\nvalue = [42, 13]\nclass = t", fillcolor="#eda876"] ;
754 -> 755 ;
756 [label="minute_0.8305084745762712 <= 0.5\ngini = 0.38\nsamples = 28\nvalue = [38, 13]\nclass = t", fillcolor="#eeac7d"] ;
755 -> 756 ;
757 [label="minute_0.8813559322033898 <= 0.5\ngini = 0.36\nsamples = 27\nvalue = [38, 12]\nclass = t", fillcolor="#eda978"] ;
756 -> 757 ;
758 [label="total_load <= 0.83\ngini = 0.33\nsamples = 23\nvalue = [34, 9]\nclass = t", fillcolor="#eca26d"] ;
757 -> 758 ;
759 [label="gini = 0.0\nsamples = 19\nvalue = [34, 0]\nclass = t", fillcolor="#e58139"] ;
758 -> 759 ;
760 [label="gini = 0.0\nsamples = 4\nvalue = [0, 9]\nclass = a", fillcolor="#399de5"] ;
758 -> 760 ;
761 [label="re_diff <= 1.96\ngini = 0.49\nsamples = 4\nvalue = [4, 3]\nclass = t", fillcolor="#f8e0ce"] ;
757 -> 761 ;
762 [label="hour_0.3913043478260869 <= 0.5\ngini = 0.32\nsamples = 3\nvalue = [4, 1]\nclass = t", fillcolor="#eca06a"] ;
761 -> 762 ;
763 [label="hour_0.34782608695652173 <= 0.5\ngini = 0.38\nsamples = 2\nvalue = [3, 1]\nclass = t", fillcolor="#eeab7b"] ;
762 -> 763 ;
764 [label="gini = 0.0\nsamples = 1\nvalue = [3, 0]\nclass = t", fillcolor="#e58139"] ;
763 -> 764 ;
765 [label="gini = 0.0\nsamples = 1\nvalue = [0, 1]\nclass = a", fillcolor="#399de5"] ;
763 -> 765 ;
766 [label="gini = 0.0\nsamples = 1\nvalue = [1, 0]\nclass = t", fillcolor="#e58139"] ;
762 -> 766 ;
767 [label="gini = 0.0\nsamples = 1\nvalue = [0, 2]\nclass = a", fillcolor="#399de5"] ;
761 -> 767 ;
768 [label="gini = 0.0\nsamples = 1\nvalue = [0, 1]\nclass = a", fillcolor="#399de5"] ;
756 -> 768 ;
769 [label="gini = 0.0\nsamples = 2\nvalue = [4, 0]\nclass = t", fillcolor="#e58139"] ;
755 -> 769 ;
770 [label="total_load <= 1.53\ngini = 0.38\nsamples = 50\nvalue = [20, 59]\nclass = a", fillcolor="#7cbeee"] ;
754 -> 770 ;
771 [label="gini = 0.0\nsamples = 13\nvalue = [20, 0]\nclass = t", fillcolor="#e58139"] ;
770 -> 771 ;
772 [label="gini = 0.0\nsamples = 37\nvalue = [0, 59]\nclass = a", fillcolor="#399de5"] ;
770 -> 772 ;
773 [label="gini = 0.0\nsamples = 8\nvalue = [0, 14]\nclass = a", fillcolor="#399de5"] ;
753 -> 773 ;
774 [label="hour_0.6521739130434783 <= 0.5\ngini = 0.22\nsamples = 43\nvalue = [64, 9]\nclass = t", fillcolor="#e99355"] ;
296 -> 774 ;
775 [label="ab_diff <= -0.41\ngini = 0.24\nsamples = 39\nvalue = [55, 9]\nclass = t", fillcolor="#e99659"] ;
774 -> 775 ;
776 [label="hour_0.3913043478260869 <= 0.5\ngini = 0.48\nsamples = 3\nvalue = [2, 3]\nclass = a", fillcolor="#bddef6"] ;
775 -> 776 ;
777 [label="gini = 0.0\nsamples = 1\nvalue = [0, 3]\nclass = a", fillcolor="#399de5"] ;
776 -> 777 ;
778 [label="gini = 0.0\nsamples = 2\nvalue = [2, 0]\nclass = t", fillcolor="#e58139"] ;
776 -> 778 ;
779 [label="minute_0.7288135593220338 <= 0.5\ngini = 0.18\nsamples = 36\nvalue = [53, 6]\nclass = t", fillcolor="#e88f4f"] ;
775 -> 779 ;
780 [label="minute_0.6101694915254238 <= 0.5\ngini = 0.19\nsamples = 34\nvalue = [50, 6]\nclass = t", fillcolor="#e89051"] ;
779 -> 780 ;
781 [label="window_crossing_point <= -1.57\ngini = 0.17\nsamples = 32\nvalue = [48, 5]\nclass = t", fillcolor="#e88e4e"] ;
780 -> 781 ;
782 [label="weekday_0.3333333333333333 <= 0.5\ngini = 0.28\nsamples = 18\nvalue = [25, 5]\nclass = t", fillcolor="#ea9a61"] ;
781 -> 782 ;
783 [label="gini = 0.0\nsamples = 14\nvalue = [22, 0]\nclass = t", fillcolor="#e58139"] ;
782 -> 783 ;
784 [label="re_diff <= 0.11\ngini = 0.47\nsamples = 4\nvalue = [3, 5]\nclass = a", fillcolor="#b0d8f5"] ;
782 -> 784 ;
785 [label="gini = 0.0\nsamples = 3\nvalue = [0, 5]\nclass = a", fillcolor="#399de5"] ;
784 -> 785 ;
786 [label="gini = 0.0\nsamples = 1\nvalue = [3, 0]\nclass = t", fillcolor="#e58139"] ;
784 -> 786 ;
787 [label="gini = 0.0\nsamples = 14\nvalue = [23, 0]\nclass = t", fillcolor="#e58139"] ;
781 -> 787 ;
788 [label="window_peak <= 0.48\ngini = 0.44\nsamples = 2\nvalue = [2, 1]\nclass = t", fillcolor="#f2c09c"] ;
780 -> 788 ;
789 [label="gini = 0.0\nsamples = 1\nvalue = [2, 0]\nclass = t", fillcolor="#e58139"] ;
788 -> 789 ;
790 [label="gini = 0.0\nsamples = 1\nvalue = [0, 1]\nclass = a", fillcolor="#399de5"] ;
788 -> 790 ;
791 [label="gini = 0.0\nsamples = 2\nvalue = [3, 0]\nclass = t", fillcolor="#e58139"] ;
779 -> 791 ;
792 [label="gini = 0.0\nsamples = 4\nvalue = [9, 0]\nclass = t", fillcolor="#e58139"] ;
774 -> 792 ;
793 [label="window_peak <= 0.44\ngini = 0.37\nsamples = 6769\nvalue = [8068, 2608]\nclass = t", fillcolor="#edaa79"] ;
295 -> 793 ;
794 [label="window_dev <= 1.05\ngini = 0.01\nsamples = 1988\nvalue = [3111, 16]\nclass = t", fillcolor="#e5823a"] ;
793 -> 794 ;
795 [label="gini = 0.0\nsamples = 1936\nvalue = [3047, 0]\nclass = t", fillcolor="#e58139"] ;
794 -> 795 ;
796 [label="total_load <= 1.07\ngini = 0.32\nsamples = 52\nvalue = [64, 16]\nclass = t", fillcolor="#eca06a"] ;
794 -> 796 ;
797 [label="gini = 0.0\nsamples = 42\nvalue = [64, 0]\nclass = t", fillcolor="#e58139"] ;
796 -> 797 ;
798 [label="gini = 0.0\nsamples = 10\nvalue = [0, 16]\nclass = a", fillcolor="#399de5"] ;
796 -> 798 ;
799 [label="total_load <= 1.83\ngini = 0.45\nsamples = 4781\nvalue = [4957, 2592]\nclass = t", fillcolor="#f3c3a1"] ;
793 -> 799 ;
800 [label="window_dev <= 0.96\ngini = 0.06\nsamples = 3027\nvalue = [4593, 153]\nclass = t", fillcolor="#e68540"] ;
799 -> 800 ;
801 [label="date_0.13333333333333333 <= 0.5\ngini = 0.01\nsamples = 546\nvalue = [844, 4]\nclass = t", fillcolor="#e5823a"] ;
800 -> 801 ;
802 [label="hour_0.43478260869565216 <= 0.5\ngini = 0.0\nsamples = 520\nvalue = [809, 2]\nclass = t", fillcolor="#e58139"] ;
801 -> 802 ;
803 [label="weekday_0.3333333333333333 <= 0.5\ngini = 0.01\nsamples = 497\nvalue = [779, 2]\nclass = t", fillcolor="#e5813a"] ;
802 -> 803 ;
804 [label="hour_0.9130434782608695 <= 0.5\ngini = 0.01\nsamples = 426\nvalue = [665, 2]\nclass = t", fillcolor="#e5813a"] ;
803 -> 804 ;
805 [label="gini = 0.0\nsamples = 413\nvalue = [648, 0]\nclass = t", fillcolor="#e58139"] ;
804 -> 805 ;
806 [label="date_0.7 <= 0.5\ngini = 0.19\nsamples = 13\nvalue = [17, 2]\nclass = t", fillcolor="#e89050"] ;
804 -> 806 ;
807 [label="re_diff <= 0.79\ngini = 0.2\nsamples = 12\nvalue = [16, 2]\nclass = t", fillcolor="#e89152"] ;
806 -> 807 ;
808 [label="gini = 0.0\nsamples = 9\nvalue = [15, 0]\nclass = t", fillcolor="#e58139"] ;
807 -> 808 ;
809 [label="re_diff <= 1.47\ngini = 0.44\nsamples = 3\nvalue = [1, 2]\nclass = a", fillcolor="#9ccef2"] ;
807 -> 809 ;
810 [label="gini = 0.0\nsamples = 1\nvalue = [0, 1]\nclass = a", fillcolor="#399de5"] ;
809 -> 810 ;
811 [label="minute_0.559322033898305 <= 0.5\ngini = 0.5\nsamples = 2\nvalue = [1, 1]\nclass = t", fillcolor="#ffffff"] ;
809 -> 811 ;
812 [label="gini = 0.0\nsamples = 1\nvalue = [0, 1]\nclass = a", fillcolor="#399de5"] ;
811 -> 812 ;
813 [label="gini = 0.0\nsamples = 1\nvalue = [1, 0]\nclass = t", fillcolor="#e58139"] ;
811 -> 813 ;
814 [label="gini = 0.0\nsamples = 1\nvalue = [1, 0]\nclass = t", fillcolor="#e58139"] ;
806 -> 814 ;
815 [label="gini = 0.0\nsamples = 71\nvalue = [114, 0]\nclass = t", fillcolor="#e58139"] ;
803 -> 815 ;
816 [label="gini = 0.0\nsamples = 23\nvalue = [30, 0]\nclass = t", fillcolor="#e58139"] ;
802 -> 816 ;
817 [label="window_dev <= 0.62\ngini = 0.1\nsamples = 26\nvalue = [35, 2]\nclass = t", fillcolor="#e68844"] ;
801 -> 817 ;
818 [label="gini = 0.0\nsamples = 13\nvalue = [18, 0]\nclass = t", fillcolor="#e58139"] ;
817 -> 818 ;
819 [label="minute_0.6101694915254238 <= 0.5\ngini = 0.19\nsamples = 13\nvalue = [17, 2]\nclass = t", fillcolor="#e89050"] ;
817 -> 819 ;
820 [label="minute_0.22033898305084745 <= 0.5\ngini = 0.21\nsamples = 12\nvalue = [15, 2]\nclass = t", fillcolor="#e89253"] ;
819 -> 820 ;
821 [label="minute_0.559322033898305 <= 0.5\ngini = 0.23\nsamples = 11\nvalue = [13, 2]\nclass = t", fillcolor="#e99457"] ;
820 -> 821 ;
822 [label="minute_0.3389830508474576 <= 0.5\ngini = 0.24\nsamples = 10\nvalue = [12, 2]\nclass = t", fillcolor="#e9965a"] ;
821 -> 822 ;
823 [label="window_dev <= 0.69\ngini = 0.14\nsamples = 9\nvalue = [12, 1]\nclass = t", fillcolor="#e78c49"] ;
822 -> 823 ;
824 [label="gini = 0.0\nsamples = 1\nvalue = [0, 1]\nclass = a", fillcolor="#399de5"] ;
823 -> 824 ;
825 [label="gini = 0.0\nsamples = 8\nvalue = [12, 0]\nclass = t", fillcolor="#e58139"] ;
823 -> 825 ;
826 [label="gini = 0.0\nsamples = 1\nvalue = [0, 1]\nclass = a", fillcolor="#399de5"] ;
822 -> 826 ;
827 [label="gini = 0.0\nsamples = 1\nvalue = [1, 0]\nclass = t", fillcolor="#e58139"] ;
821 -> 827 ;
828 [label="gini = 0.0\nsamples = 1\nvalue = [2, 0]\nclass = t", fillcolor="#e58139"] ;
820 -> 828 ;
829 [label="gini = 0.0\nsamples = 1\nvalue = [2, 0]\nclass = t", fillcolor="#e58139"] ;
819 -> 829 ;
830 [label="hour_0.6956521739130435 <= 0.5\ngini = 0.07\nsamples = 2481\nvalue = [3749, 149]\nclass = t", fillcolor="#e68641"] ;
800 -> 830 ;
831 [label="minute_0.9322033898305084 <= 0.5\ngini = 0.06\nsamples = 2302\nvalue = [3494, 117]\nclass = t", fillcolor="#e68540"] ;
830 -> 831 ;
832 [label="minute_0.4067796610169492 <= 0.5\ngini = 0.06\nsamples = 2251\nvalue = [3415, 110]\nclass = t", fillcolor="#e6853f"] ;
831 -> 832 ;
833 [label="weekday_0.5 <= 0.5\ngini = 0.06\nsamples = 2210\nvalue = [3361, 104]\nclass = t", fillcolor="#e6853f"] ;
832 -> 833 ;
834 [label="minute_0.9491525423728814 <= 0.5\ngini = 0.06\nsamples = 1871\nvalue = [2837, 95]\nclass = t", fillcolor="#e68540"] ;
833 -> 834 ;
835 [label="date_0.06666666666666668 <= 0.5\ngini = 0.06\nsamples = 1831\nvalue = [2781, 88]\nclass = t", fillcolor="#e6853f"] ;
834 -> 835 ;
836 [label="hour_0.43478260869565216 <= 0.5\ngini = 0.05\nsamples = 1751\nvalue = [2671, 77]\nclass = t", fillcolor="#e6853f"] ;
835 -> 836 ;
837 [label="window_dev <= 0.96\ngini = 0.05\nsamples = 1545\nvalue = [2373, 64]\nclass = t", fillcolor="#e6843e"] ;
836 -> 837 ;
838 [label="gini = 0.0\nsamples = 1\nvalue = [0, 1]\nclass = a", fillcolor="#399de5"] ;
837 -> 838 ;
839 [label="re_diff <= 0.32\ngini = 0.05\nsamples = 1544\nvalue = [2373, 63]\nclass = t", fillcolor="#e6843e"] ;
837 -> 839 ;
840 [label="ab_diff <= -0.18\ngini = 0.08\nsamples = 865\nvalue = [1333, 58]\nclass = t", fillcolor="#e68642"] ;
839 -> 840 ;
841 [label="ab_diff <= -0.18\ngini = 0.17\nsamples = 194\nvalue = [283, 30]\nclass = t", fillcolor="#e88e4e"] ;
840 -> 841 ;
842 [label="hour_0.7826086956521738 <= 0.5\ngini = 0.16\nsamples = 193\nvalue = [283, 27]\nclass = t", fillcolor="#e78d4c"] ;
841 -> 842 ;
843 [label="window_crossing_point <= -1.2\ngini = 0.18\nsamples = 176\nvalue = [247, 27]\nclass = t", fillcolor="#e88f4f"] ;
842 -> 843 ;
844 [label="hour_0.9130434782608695 <= 0.5\ngini = 0.03\nsamples = 43\nvalue = [61, 1]\nclass = t", fillcolor="#e5833c"] ;
843 -> 844 ;
845 [label="date_0.6333333333333333 <= 0.5\ngini = 0.03\nsamples = 40\nvalue = [56, 1]\nclass = t", fillcolor="#e5833d"] ;
844 -> 845 ;
846 [label="hour_0.6086956521739131 <= 0.5\ngini = 0.04\nsamples = 36\nvalue = [49, 1]\nclass = t", fillcolor="#e6843d"] ;
845 -> 846 ;
847 [label="gini = 0.0\nsamples = 26\nvalue = [37, 0]\nclass = t", fillcolor="#e58139"] ;
846 -> 847 ;
848 [label="weekday_1.0 <= 0.5\ngini = 0.14\nsamples = 10\nvalue = [12, 1]\nclass = t", fillcolor="#e78c49"] ;
846 -> 848 ;
849 [label="minute_0.2711864406779661 <= 0.5\ngini = 0.15\nsamples = 9\nvalue = [11, 1]\nclass = t", fillcolor="#e78c4b"] ;
848 -> 849 ;
850 [label="weekday_0.8333333333333333 <= 0.5\ngini = 0.17\nsamples = 8\nvalue = [10, 1]\nclass = t", fillcolor="#e88e4d"] ;
849 -> 850 ;
851 [label="ab_diff <= -0.52\ngini = 0.2\nsamples = 6\nvalue = [8, 1]\nclass = t", fillcolor="#e89152"] ;
850 -> 851 ;
852 [label="window_peak <= 1.0\ngini = 0.5\nsamples = 2\nvalue = [1, 1]\nclass = t", fillcolor="#ffffff"] ;
851 -> 852 ;
853 [label="gini = 0.0\nsamples = 1\nvalue = [1, 0]\nclass = t", fillcolor="#e58139"] ;
852 -> 853 ;
854 [label="gini = 0.0\nsamples = 1\nvalue = [0, 1]\nclass = a", fillcolor="#399de5"] ;
852 -> 854 ;
855 [label="gini = 0.0\nsamples = 4\nvalue = [7, 0]\nclass = t", fillcolor="#e58139"] ;
851 -> 855 ;
856 [label="gini = 0.0\nsamples = 2\nvalue = [2, 0]\nclass = t", fillcolor="#e58139"] ;
850 -> 856 ;
857 [label="gini = 0.0\nsamples = 1\nvalue = [1, 0]\nclass = t", fillcolor="#e58139"] ;
849 -> 857 ;
858 [label="gini = 0.0\nsamples = 1\nvalue = [1, 0]\nclass = t", fillcolor="#e58139"] ;
848 -> 858 ;
859 [label="gini = 0.0\nsamples = 4\nvalue = [7, 0]\nclass = t", fillcolor="#e58139"] ;
845 -> 859 ;
860 [label="gini = 0.0\nsamples = 3\nvalue = [5, 0]\nclass = t", fillcolor="#e58139"] ;
